booster[0]
0:leaf=-0.300000012,cover=36339
booster[1]
0:leaf=-0.300000012,cover=35533.4844
booster[2]
0:leaf=-0.300000012,cover=33255.1641
booster[3]
0:leaf=-0.300000012,cover=29870.7051
booster[4]
0:leaf=-0.300000012,cover=25858.0254
booster[5]
0:leaf=-0.300000012,cover=21679.334
booster[6]
0:[f150<58.7999992] yes=1,no=2,missing=2,gain=0.08984375,cover=17694.0898
	1:leaf=-0.109375536,cover=1.70421076
	2:leaf=-0.300000012,cover=17692.3867
booster[7]
0:[f150<58.7999992] yes=1,no=2,missing=2,gain=0.2109375,cover=14128.0479
	1:leaf=-0.0940388888,cover=1.57355607
	2:[f21<-9.53674316e-07] yes=3,no=4,missing=3,gain=0.20703125,cover=14126.4746
		3:[f143<36.5999985] yes=5,no=6,missing=5,gain=12.3184967,cover=81.7407532
			5:[f157<561.5] yes=7,no=8,missing=8,gain=1.06768036,cover=75.5202942
				7:[f156<16.5950012] yes=11,no=12,missing=12,gain=0.688354492,cover=70.85495
					11:[f106<-9.53674316e-07] yes=17,no=18,missing=17,gain=0.423812866,cover=69.7858047
						17:leaf=-0.300000012,cover=68.4250793
						18:leaf=-0.0670161247,cover=1.360726
					12:leaf=-0.0290069766,cover=1.06914186
				8:[f1<34.5] yes=13,no=14,missing=13,gain=1.36026323,cover=4.66534615
					13:leaf=-0.238559127,cover=2.42986798
					14:[f1<44] yes=19,no=20,missing=19,gain=0.278934866,cover=2.2354784
						19:leaf=0.11598067,cover=1.06914186
						20:leaf=-0.0428135693,cover=1.16633654
			6:[f157<233] yes=9,no=10,missing=10,gain=11.0422668,cover=6.22046185
				9:[f149<425] yes=15,no=16,missing=15,gain=4.16528893,cover=3.01303625
					15:leaf=0.300000012,cover=1.94389439
					16:leaf=-0.173994616,cover=1.06914186
				10:leaf=-0.25670296,cover=3.20742559
		4:leaf=-0.300000012,cover=14044.7334
booster[8]
0:[f21<-9.53674316e-07] yes=1,no=2,missing=1,gain=1.75878906,cover=11086.6865
	1:[f143<36.5999985] yes=3,no=4,missing=3,gain=11.6320915,cover=66.2957458
		3:[f157<561.5] yes=7,no=8,missing=8,gain=1.07679749,cover=60.3220863
			7:[f142<23.5499992] yes=15,no=16,missing=15,gain=0.979972839,cover=56.0193253
				15:leaf=-0.300000012,cover=41.4017944
				16:[f154<44.5499992] yes=29,no=30,missing=30,gain=2.05398703,cover=14.6175318
					29:leaf=-0.289611995,cover=7.701756
					30:[f154<45.5499992] yes=41,no=42,missing=42,gain=4.68560791,cover=6.91577625
						41:leaf=0.300000012,cover=1.41009545
						42:leaf=-0.185770854,cover=5.50568056
			8:[f1<34.5] yes=17,no=18,missing=17,gain=1.05660868,cover=4.30276155
				17:leaf=-0.21951133,cover=2.00597692
				18:[f1<41.5] yes=31,no=32,missing=31,gain=0.317325324,cover=2.29678488
					31:leaf=0.115052849,cover=1.06276405
					32:leaf=-0.0511562787,cover=1.23402095
		4:[f157<233] yes=9,no=10,missing=10,gain=8.62436295,cover=5.97365761
			9:[f28<-9.53674316e-07] yes=19,no=20,missing=19,gain=2.43984175,cover=3.3651309
				19:leaf=-0.065911822,cover=1.31221437
				20:leaf=0.300000012,cover=2.05291653
			10:leaf=-0.23740752,cover=2.60852647
	2:[f142<93.5] yes=5,no=6,missing=5,gain=0.912109375,cover=11020.3906
		5:[f154<55.8499985] yes=11,no=12,missing=11,gain=0.52734375,cover=10926.4453
			11:[f150<58.7999992] yes=21,no=22,missing=22,gain=0.317382812,cover=10922.7852
				21:leaf=-0.080754742,cover=1.46609116
				22:leaf=-0.300000012,cover=10921.3184
			12:[f157<173] yes=23,no=24,missing=24,gain=1.71185184,cover=3.66024041
				23:leaf=0.121241197,cover=1.06757009
				24:leaf=-0.236136779,cover=2.5926702
		6:[f39<-9.53674316e-07] yes=13,no=14,missing=13,gain=8.26314545,cover=93.946167
			13:[f141<3.25] yes=25,no=26,missing=25,gain=2.36401367,cover=82.1266479
				25:[f106<-9.53674316e-07] yes=33,no=34,missing=33,gain=2.91271973,cover=72.2897491
					33:leaf=-0.300000012,cover=71.1459198
					34:leaf=0.10528978,cover=1.14382517
				26:[f28<-9.53674316e-07] yes=35,no=36,missing=35,gain=5.45976305,cover=9.83689594
					35:[f162<0.0450000018] yes=43,no=44,missing=44,gain=1.31880331,cover=8.31179619
						43:leaf=0.000408662541,cover=1.83012021
						44:leaf=-0.28347981,cover=6.48167562
					36:leaf=0.277598441,cover=1.52510023
			14:[f150<166.5] yes=27,no=28,missing=28,gain=10.367382,cover=11.8195267
				27:[f1<63.5] yes=37,no=38,missing=37,gain=4.05218554,cover=3.35522032
					37:leaf=0.300000012,cover=2.28765035
					38:leaf=-0.168954536,cover=1.06757009
				28:[f146<1.79999995] yes=39,no=40,missing=40,gain=2.18296671,cover=8.46430588
					39:[f50<-9.53674316e-07] yes=45,no=46,missing=45,gain=0.566207886,cover=7.39673567
						45:leaf=-0.0238566715,cover=1.06757009
						46:leaf=-0.282569736,cover=6.32916594
					40:leaf=0.121241197,cover=1.06757009
booster[9]
0:[f143<43.8499985] yes=1,no=2,missing=1,gain=4.67871094,cover=8586.49414
	1:[f154<55.8499985] yes=3,no=4,missing=3,gain=0.840820312,cover=8310.21777
		3:[f150<58.7999992] yes=7,no=8,missing=8,gain=0.486328125,cover=8307.12695
			7:leaf=-0.0577016622,cover=1.27923536
			8:[f21<-9.53674316e-07] yes=15,no=16,missing=15,gain=0.302734375,cover=8305.84766
				15:[f151<63.5999985] yes=25,no=26,missing=26,gain=2.37649918,cover=50.3201523
					25:[f151<58.5] yes=41,no=42,missing=42,gain=3.32308531,cover=4.09393311
						41:leaf=-0.224603906,cover=2.31878352
						42:leaf=0.220664397,cover=1.7751497
					26:[f154<48.9500008] yes=43,no=44,missing=44,gain=0.859222412,cover=46.2262192
						43:leaf=-0.290886998,cover=38.9818535
						44:leaf=-0.143054277,cover=7.24436569
				16:[f142<122.5] yes=27,no=28,missing=27,gain=0.170898438,cover=8255.52734
					27:leaf=-0.300000012,cover=8253.55664
					28:leaf=-0.111633867,cover=1.97071886
		4:[f154<56.5] yes=9,no=10,missing=10,gain=1.64028895,cover=3.09163499
			9:leaf=0.13777481,cover=1.00136137
			10:leaf=-0.219975457,cover=2.09027338
	2:[f39<-9.53674316e-07] yes=5,no=6,missing=5,gain=21.4689941,cover=276.275604
		5:[f21<-9.53674316e-07] yes=11,no=12,missing=11,gain=10.430481,cover=243.618546
			11:[f145<99.5] yes=17,no=18,missing=18,gain=4.54704618,cover=3.68669844
				17:[f149<397] yes=29,no=30,missing=29,gain=1.74513149,cover=2.37145948
					29:leaf=0.300000012,cover=1.22326958
					30:leaf=-0.0391302481,cover=1.14819002
				18:leaf=-0.196800709,cover=1.31523895
			12:[f106<-9.53674316e-07] yes=19,no=20,missing=19,gain=1.77444458,cover=239.931839
				19:[f35<-9.53674316e-07] yes=31,no=32,missing=31,gain=1.34321594,cover=236.090118
					31:[f157<142.5] yes=45,no=46,missing=46,gain=1.33692932,cover=233.676056
						45:leaf=-0.183308467,cover=14.4457874
						46:leaf=-0.300000012,cover=219.230255
					32:[f144<75.5] yes=47,no=48,missing=48,gain=1.28063297,cover=2.41407704
						47:leaf=-0.188214496,cover=1.41094577
						48:leaf=0.139199987,cover=1.00313127
				20:[f147<34.5] yes=33,no=34,missing=34,gain=3.62992334,cover=3.84171724
					33:leaf=-0.237038597,cover=2.74018884
					34:leaf=0.258830816,cover=1.10152853
		6:[f150<166.5] yes=13,no=14,missing=14,gain=15.4017868,cover=32.6570549
			13:[f153<115.5] yes=21,no=22,missing=22,gain=8.32267475,cover=10.3024054
				21:[f152<33.5] yes=35,no=36,missing=35,gain=5.11457253,cover=6.61174107
					35:leaf=-0.185686454,cover=1.33290243
					36:[f142<44.5] yes=49,no=50,missing=50,gain=2.13451195,cover=5.27883863
						49:leaf=-0.0507614501,cover=1.29291844
						50:leaf=0.300000012,cover=3.98592043
				22:[f157<177] yes=37,no=38,missing=38,gain=1.78226876,cover=3.69066381
					37:leaf=0.128654331,cover=1.04177177
					38:leaf=-0.235663503,cover=2.64889193
			14:[f152<92.5] yes=23,no=24,missing=23,gain=4.4625864,cover=22.3546486
				23:[f143<44.5] yes=39,no=40,missing=40,gain=4.94429588,cover=21.3244476
					39:leaf=0.271265656,cover=1.06304371
					40:[f154<49.1500015] yes=51,no=52,missing=51,gain=2.00392151,cover=20.261404
						51:leaf=-0.259857476,cover=18.9410343
						52:leaf=0.0751908347,cover=1.32037032
				24:leaf=0.280384511,cover=1.0302006
booster[10]
0:[f143<38.9000015] yes=1,no=2,missing=1,gain=9.27685547,cover=6585.15918
	1:[f154<55.8499985] yes=3,no=4,missing=3,gain=1.05175781,cover=6257.40479
		3:[f21<-9.53674316e-07] yes=7,no=8,missing=7,gain=0.806152344,cover=6254.62012
			7:[f142<23.5499992] yes=15,no=16,missing=16,gain=2.25827599,cover=39.7318115
				15:[f117<-9.53674316e-07] yes=27,no=28,missing=27,gain=0.854579926,cover=24.9721336
					27:leaf=-0.0102877486,cover=1.0064851
					28:leaf=-0.300000012,cover=23.9656467
				16:[f151<110.099998] yes=29,no=30,missing=30,gain=2.44862723,cover=14.7596807
					29:[f154<44.5499992] yes=47,no=48,missing=48,gain=4.76179981,cover=6.22011328
						47:leaf=-0.232979581,cover=2.81654382
						48:leaf=0.22494711,cover=3.4035697
					30:[f30<-9.53674316e-07] yes=49,no=50,missing=49,gain=0.467759132,cover=8.53956699
						49:leaf=-0.249435291,cover=7.47938013
						50:leaf=-0.0187177453,cover=1.06018686
			8:[f142<120.5] yes=17,no=18,missing=17,gain=0.689453125,cover=6214.88818
				17:[f35<-9.53674316e-07] yes=31,no=32,missing=31,gain=0.124023438,cover=6213.69189
					31:[f156<2.22000003] yes=51,no=52,missing=52,gain=0.0595703125,cover=6172.03906
						51:leaf=-0.131328538,cover=2.3491869
						52:leaf=-0.300000012,cover=6169.68945
					32:[f143<32.5] yes=53,no=54,missing=53,gain=5.43411064,cover=41.6528893
						53:leaf=-0.277432203,cover=39.3940544
						54:leaf=0.14993456,cover=2.25883341
				18:leaf=-0.0369153172,cover=1.19663191
		4:[f146<0.694999993] yes=9,no=10,missing=9,gain=1.48301733,cover=2.78458023
			9:leaf=-0.206844166,cover=1.7827388
			10:leaf=0.137961388,cover=1.00184143
	2:[f39<-9.53674316e-07] yes=5,no=6,missing=5,gain=22.5007935,cover=327.754486
		5:[f21<-9.53674316e-07] yes=11,no=12,missing=11,gain=10.4864197,cover=287.618073
			11:[f1<47] yes=19,no=20,missing=19,gain=5.00564003,cover=4.4925766
				19:leaf=-0.203793198,cover=1.60674906
				20:[f28<-9.53674316e-07] yes=33,no=34,missing=33,gain=1.59965801,cover=2.8858273
					33:leaf=-0.0350268111,cover=1.08448911
					34:leaf=0.300000012,cover=1.80133808
			12:[f157<132.5] yes=21,no=22,missing=22,gain=2.24002075,cover=283.125519
				21:[f155<14.4499998] yes=35,no=36,missing=36,gain=7.23865747,cover=13.0355282
					35:leaf=-0.284845054,cover=8.99318981
					36:[f146<0.50999999] yes=55,no=56,missing=56,gain=7.56681108,cover=4.04233885
						55:leaf=0.300000012,cover=1.01080179
						56:leaf=-0.163529515,cover=3.03153706
				22:[f40<-9.53674316e-07] yes=37,no=38,missing=37,gain=2.19085693,cover=270.089966
					37:[f106<-9.53674316e-07] yes=57,no=58,missing=57,gain=1.17652893,cover=268.516724
						57:leaf=-0.29462564,cover=263.685333
						58:leaf=-0.111808255,cover=4.83137989
					38:leaf=0.0401390679,cover=1.57326365
		6:[f150<166.100006] yes=13,no=14,missing=14,gain=17.5220318,cover=40.1364136
			13:[f148<0.944999993] yes=23,no=24,missing=24,gain=9.44743443,cover=13.5643263
				23:[f142<40.5] yes=39,no=40,missing=40,gain=6.33535004,cover=10.2111845
					39:leaf=-0.198003113,cover=1.6619463
					40:[f141<2.6500001] yes=59,no=60,missing=60,gain=5.38623047,cover=8.5492382
						59:leaf=-0.188690931,cover=1.40668094
						60:leaf=0.300000012,cover=7.14255762
				24:[f161<0.275000006] yes=41,no=42,missing=41,gain=0.349474072,cover=3.35314155
					41:leaf=-0.228159025,cover=2.34681273
					42:leaf=-0.012786177,cover=1.0063287
			14:[f152<50.5] yes=25,no=26,missing=25,gain=3.10323429,cover=26.5720882
				25:[f154<49.5] yes=43,no=44,missing=44,gain=0.747662544,cover=13.2270613
					43:leaf=-0.292694777,cover=12.2165594
					44:leaf=-0.0122472597,cover=1.01050186
				26:[f66<-9.53674316e-07] yes=45,no=46,missing=45,gain=4.25239897,cover=13.345027
					45:[f144<69.5] yes=61,no=62,missing=62,gain=7.71401215,cover=8.46348286
						61:leaf=0.300000012,cover=1.91565335
						62:leaf=-0.116977401,cover=6.54782963
					46:leaf=-0.262756348,cover=4.88154316
booster[11]
0:[f143<35.7000008] yes=1,no=2,missing=1,gain=15.1303711,cover=5016.67041
	1:[f154<55.8499985] yes=3,no=4,missing=3,gain=1.24169922,cover=4671.80225
		3:[f21<-9.53674316e-07] yes=7,no=8,missing=7,gain=1.12548828,cover=4669.26611
			7:[f88<-9.53674316e-07] yes=15,no=16,missing=15,gain=1.81505775,cover=31.865818
				15:[f158<3.49000001] yes=27,no=28,missing=27,gain=0.654621124,cover=23.6701355
					27:[f142<41.5] yes=45,no=46,missing=46,gain=0.724315643,cover=20.6276016
						45:leaf=-0.298145682,cover=19.5407276
						46:leaf=-0.0233508814,cover=1.08687341
					28:[f153<88.5] yes=47,no=48,missing=48,gain=1.55564713,cover=3.04253411
						47:leaf=0.135398716,cover=1.0098871
						48:leaf=-0.213192269,cover=2.03264689
				16:[f1<55] yes=29,no=30,missing=29,gain=5.89716768,cover=8.19568348
					29:[f107<-9.53674316e-07] yes=49,no=50,missing=49,gain=0.446561098,cover=6.94850731
						49:leaf=-0.255013734,cover=4.3518815
						50:leaf=-0.066583626,cover=2.59662557
					30:leaf=0.300000012,cover=1.24717629
			8:[f142<116.5] yes=17,no=18,missing=17,gain=0.859863281,cover=4637.40039
				17:[f39<-9.53674316e-07] yes=31,no=32,missing=31,gain=0.52734375,cover=4636.37598
					31:[f156<2.22000003] yes=51,no=52,missing=52,gain=0.319335938,cover=4258.4917
						51:leaf=-0.0940101892,cover=1.79869723
						52:leaf=-0.300000012,cover=4256.69336
					32:[f62<-9.53674316e-07] yes=53,no=54,missing=53,gain=8.17016602,cover=377.884155
						53:leaf=-0.11467573,cover=26.5527573
						54:leaf=-0.293156236,cover=351.33139
				18:leaf=-0.0124560026,cover=1.02419007
		4:[f154<56.5] yes=9,no=10,missing=10,gain=1.29570723,cover=2.53605366
			9:leaf=0.133968994,cover=1.01407397
			10:leaf=-0.192745894,cover=1.52197957
	2:[f39<-9.53674316e-07] yes=5,no=6,missing=5,gain=21.5786285,cover=344.868164
		5:[f21<-9.53674316e-07] yes=11,no=12,missing=11,gain=10.3009491,cover=297.592957
			11:[f1<47] yes=19,no=20,missing=19,gain=4.50958347,cover=5.26412106
				19:leaf=-0.202743232,cover=1.67266691
				20:[f145<99.5] yes=33,no=34,missing=34,gain=2.17051363,cover=3.59145403
					33:leaf=0.300000012,cover=2.36103511
					34:leaf=-0.057719741,cover=1.2304188
			12:[f141<4.05000019] yes=21,no=22,missing=21,gain=5.81842041,cover=292.328827
				21:[f35<-9.53674316e-07] yes=35,no=36,missing=35,gain=3.1330719,cover=288.820892
					35:[f36<-9.53674316e-07] yes=55,no=56,missing=55,gain=2.55702209,cover=284.865997
						55:leaf=-0.285552084,cover=277.807007
						56:leaf=-0.0869966596,cover=7.05897236
					36:[f23<-9.53674316e-07] yes=57,no=58,missing=57,gain=5.00773335,cover=3.95491982
						57:leaf=-0.228613228,cover=2.63475084
						58:leaf=0.300000012,cover=1.32016885
				22:[f148<0.694999993] yes=37,no=38,missing=38,gain=4.94384336,cover=3.5079174
					37:leaf=0.300000012,cover=1.61889207
					38:leaf=-0.204177603,cover=1.88902545
		6:[f150<166.100006] yes=13,no=14,missing=14,gain=13.3036289,cover=47.2752113
			13:[f153<115.5] yes=23,no=24,missing=24,gain=9.16381645,cover=17.6894932
				23:[f142<40.5] yes=39,no=40,missing=40,gain=7.65560818,cover=12.7307615
					39:[f153<93.5] yes=59,no=60,missing=60,gain=0.290492356,cover=2.81861329
						59:leaf=-0.20224154,cover=1.81508482
						60:leaf=-0.00696488796,cover=1.00352859
					40:[f148<0.944999993] yes=61,no=62,missing=62,gain=4.82477379,cover=9.91214848
						61:leaf=0.300000012,cover=7.88756323
						62:leaf=-0.116320461,cover=2.02458501
				24:[f147<24.5] yes=41,no=42,missing=42,gain=2.11437607,cover=4.9587307
					41:leaf=0.130323067,cover=1.0227139
					42:leaf=-0.256320149,cover=3.9360168
			14:[f159<1.95499992] yes=25,no=26,missing=25,gain=4.36143017,cover=29.5857182
				25:leaf=0.275721073,cover=1.05130672
				26:[f145<57.5] yes=43,no=44,missing=44,gain=3.29056168,cover=28.5344124
					43:[f161<0.105000004] yes=63,no=64,missing=64,gain=6.83934832,cover=3.95257783
						63:leaf=0.300000012,cover=1.32152462
						64:leaf=-0.227916092,cover=2.63105321
					44:[f143<85.5] yes=65,no=66,missing=66,gain=2.84074688,cover=24.5818348
						65:leaf=-0.2619268,cover=22.4731503
						66:leaf=0.0726248473,cover=2.1086843
booster[12]
0:[f143<35.7000008] yes=1,no=2,missing=1,gain=19.614502,cover=3810.06543
	1:[f143<28.8999996] yes=3,no=4,missing=4,gain=2.91796875,cover=3534.43335
		3:[f142<70.5] yes=7,no=8,missing=7,gain=1.95996094,cover=3026.84326
			7:[f155<18.5499992] yes=15,no=16,missing=15,gain=0.887695312,cover=3024.93726
				15:[f21<-9.53674316e-07] yes=29,no=30,missing=29,gain=0.330566406,cover=3023.93701
					29:[f140<3.6500001] yes=53,no=54,missing=54,gain=2.2988205,cover=19.4764843
						53:leaf=0.11643555,cover=1.11316931
						54:leaf=-0.2490661,cover=18.3633156
					30:leaf=-0.300000012,cover=3004.46069
				16:leaf=-0.00857995637,cover=1.00021303
			8:leaf=0.00276162312,cover=1.90596473
		4:[f48<-9.53674316e-07] yes=9,no=10,missing=9,gain=6.48348999,cover=507.590118
			9:[f154<50.4500008] yes=17,no=18,missing=17,gain=6.520298,cover=112.943665
				17:[f147<15.1499996] yes=31,no=32,missing=32,gain=2.93215942,cover=110.524605
					31:leaf=0.107525103,cover=1.90312445
					32:[f140<3.90500021] yes=55,no=56,missing=56,gain=2.61478806,cover=108.621483
						55:leaf=-0.0570683815,cover=8.58232784
						56:leaf=-0.237525821,cover=100.039154
				18:[f158<2.65499997] yes=33,no=34,missing=33,gain=4.98319435,cover=2.41905904
					33:leaf=-0.182224333,cover=1.41423512
					34:leaf=0.300000012,cover=1.00482392
			10:[f140<3.56999993] yes=19,no=20,missing=20,gain=1.15734863,cover=394.646454
				19:[f154<40.9500008] yes=35,no=36,missing=35,gain=3.81399393,cover=5.49323893
					35:leaf=-0.249376431,cover=4.22981071
					36:leaf=0.225479916,cover=1.26342833
				20:[f17<-9.53674316e-07] yes=37,no=38,missing=37,gain=0.839416504,cover=389.153198
					37:leaf=-0.0148821278,cover=1.07302296
					38:[f154<53.9500008] yes=57,no=58,missing=57,gain=0.834594727,cover=388.0802
						57:leaf=-0.295931309,cover=387.0513
						58:leaf=-0.01258648,cover=1.02889347
	2:[f39<-9.53674316e-07] yes=5,no=6,missing=5,gain=20.307663,cover=275.631927
		5:[f21<-9.53674316e-07] yes=11,no=12,missing=11,gain=8.66723633,cover=232.05986
			11:[f149<417.5] yes=21,no=22,missing=21,gain=3.51764894,cover=5.34579086
				21:[f28<-9.53674316e-07] yes=39,no=40,missing=39,gain=2.44619298,cover=3.83838272
					39:leaf=-0.0712992847,cover=1.34667349
					40:leaf=0.300000012,cover=2.49170923
				22:leaf=-0.197625473,cover=1.50740802
			12:[f141<4.05000019] yes=23,no=24,missing=23,gain=5.0716095,cover=226.714081
				23:[f35<-9.53674316e-07] yes=41,no=42,missing=41,gain=2.93228149,cover=223.025803
					41:[f36<-9.53674316e-07] yes=59,no=60,missing=59,gain=2.58998108,cover=219.16507
						59:leaf=-0.274844974,cover=212.653259
						60:leaf=-0.0697700232,cover=6.51182318
					42:[f23<-9.53674316e-07] yes=61,no=62,missing=61,gain=3.28710699,cover=3.86071849
						61:leaf=-0.212763384,cover=2.13866973
						62:leaf=0.237735659,cover=1.72204852
				24:[f145<87.5] yes=43,no=44,missing=44,gain=3.73185802,cover=3.68828058
					43:leaf=0.300000012,cover=1.20253849
					44:[f158<2.07999992] yes=63,no=64,missing=64,gain=0.238684535,cover=2.48574209
						63:leaf=-0.187718719,cover=1.48001838
						64:leaf=-0.00704678148,cover=1.00572371
		6:[f151<112.050003] yes=13,no=14,missing=14,gain=9.0111475,cover=43.5720558
			13:[f141<3.04999995] yes=25,no=26,missing=26,gain=10.7434702,cover=26.9218845
				25:[f161<0.295000017] yes=45,no=46,missing=45,gain=5.1218667,cover=9.13976574
					45:leaf=-0.280712545,cover=7.23367834
					46:leaf=0.195854753,cover=1.90608728
				26:[f156<8.63000011] yes=47,no=48,missing=48,gain=10.8917122,cover=17.7821198
					47:[f58<-9.53674316e-07] yes=65,no=66,missing=65,gain=5.40249634,cover=14.6955662
						65:leaf=0.300000012,cover=11.7453938
						66:leaf=-0.0819336101,cover=2.95017219
					48:leaf=-0.244962245,cover=3.08655334
			14:[f155<15.9499998] yes=27,no=28,missing=27,gain=2.42658234,cover=16.6501732
				27:[f145<68.5] yes=49,no=50,missing=50,gain=0.621896744,cover=14.5680418
					49:[f142<51.5] yes=67,no=68,missing=68,gain=1.94599438,cover=5.06673193
						67:leaf=0.091084376,cover=1.99382186
						68:leaf=-0.23759681,cover=3.07290983
					50:leaf=-0.281999409,cover=9.50131035
				28:[f160<0.595000029] yes=51,no=52,missing=52,gain=2.26202106,cover=2.08213043
					51:leaf=-0.162448794,cover=1.07437515
					52:leaf=0.289414734,cover=1.0077554
booster[13]
0:[f143<35.7000008] yes=1,no=2,missing=1,gain=22.7980957,cover=2891.8999
	1:[f143<26.8499985] yes=3,no=4,missing=4,gain=4.87280273,cover=2667.00415
		3:[f142<70.5] yes=7,no=8,missing=7,gain=2.8215332,cover=2150.34717
			7:[f155<18.25] yes=15,no=16,missing=15,gain=0.813964844,cover=2149.06592
				15:leaf=-0.300000012,cover=2147.97144
				16:leaf=-0.0208086967,cover=1.09449291
			8:leaf=0.0882904232,cover=1.28138387
		4:[f48<-9.53674316e-07] yes=9,no=10,missing=9,gain=7.21975708,cover=516.656982
			9:[f147<23.0499992] yes=17,no=18,missing=17,gain=6.10817719,cover=124.490982
				17:[f1<34.5] yes=29,no=30,missing=29,gain=9.70728683,cover=41.2627907
					29:[f149<311.5] yes=49,no=50,missing=50,gain=2.93148232,cover=19.6393089
						49:leaf=0.144759804,cover=1.00710297
						50:leaf=-0.276308417,cover=18.632206
					30:[f150<184.25] yes=51,no=52,missing=51,gain=8.01888657,cover=21.6234837
						51:leaf=0.153408587,cover=15.2716484
						52:leaf=-0.224458575,cover=6.35183525
				18:[f145<131.5] yes=31,no=32,missing=31,gain=2.36754227,cover=83.2281876
					31:[f35<-9.53674316e-07] yes=53,no=54,missing=53,gain=0.97977066,cover=78.896637
						53:leaf=-0.263996243,cover=76.3768692
						54:leaf=-0.0502160862,cover=2.5197649
					32:[f56<-9.53674316e-07] yes=55,no=56,missing=55,gain=3.90098429,cover=4.33155584
						55:leaf=-0.222619891,cover=2.64580631
						56:leaf=0.254182577,cover=1.68574977
			10:[f21<-9.53674316e-07] yes=19,no=20,missing=19,gain=1.27548218,cover=392.166016
				19:[f162<0.0549999997] yes=33,no=34,missing=34,gain=1.42297924,cover=4.73034859
					33:leaf=0.127589151,cover=1.06638956
					34:[f107<-9.53674316e-07] yes=57,no=58,missing=57,gain=0.0745458603,cover=3.66395903
						57:leaf=-0.215802953,cover=2.26557088
						58:leaf=-0.0593100637,cover=1.39838839
				20:[f145<34.5] yes=35,no=36,missing=36,gain=0.877502441,cover=387.435669
					35:leaf=-0.0044780816,cover=1.00901532
					36:[f31<-9.53674316e-07] yes=59,no=60,missing=59,gain=0.87878418,cover=386.426636
						59:leaf=-0.290531397,cover=383.14151
						60:leaf=-0.0947377607,cover=3.28512979
	2:[f39<-9.53674316e-07] yes=5,no=6,missing=5,gain=17.1414261,cover=224.895752
		5:[f21<-9.53674316e-07] yes=11,no=12,missing=11,gain=6.98848724,cover=182.902023
			11:[f1<47] yes=21,no=22,missing=21,gain=2.69401813,cover=5.3863225
				21:leaf=-0.187666908,cover=1.39659464
				22:[f150<158.5] yes=37,no=38,missing=38,gain=1.81135154,cover=3.98972774
					37:leaf=0.300000012,cover=1.70540571
					38:[f162<0.0549999997] yes=61,no=62,missing=62,gain=1.99055672,cover=2.28432202
						61:leaf=0.215981171,cover=1.01507211
						62:leaf=-0.193717733,cover=1.2692498
			12:[f141<4.05000019] yes=23,no=24,missing=23,gain=4.41027832,cover=177.515701
				23:[f157<146.5] yes=39,no=40,missing=40,gain=2.86181641,cover=173.697647
					39:[f146<0.504999995] yes=63,no=64,missing=63,gain=6.29735708,cover=11.8432837
						63:leaf=0.187506676,cover=3.85588717
						64:leaf=-0.239740252,cover=7.98739672
					40:[f35<-9.53674316e-07] yes=65,no=66,missing=65,gain=2.89318085,cover=161.85437
						65:leaf=-0.266935527,cover=158.080368
						66:leaf=-0.000923951273,cover=3.77399755
				24:[f147<30] yes=41,no=42,missing=42,gain=3.26758337,cover=3.81804276
					41:[f142<48.5] yes=67,no=68,missing=68,gain=0.217499673,cover=2.4440589
						67:leaf=-0.185856491,cover=1.43545067
						68:leaf=-0.00973793119,cover=1.00860822
					42:leaf=0.300000012,cover=1.37398374
		6:[f157<244.5] yes=13,no=14,missing=14,gain=7.44847775,cover=41.9937401
			13:[f148<0.88499999] yes=25,no=26,missing=26,gain=7.47019768,cover=25.244276
				25:[f145<106.5] yes=43,no=44,missing=43,gain=9.73757458,cover=16.455801
					43:[f30<-9.53674316e-07] yes=69,no=70,missing=69,gain=9.24625683,cover=12.7697172
						69:leaf=0.300000012,cover=10.4869909
						70:leaf=-0.230013028,cover=2.28272653
					44:[f162<0.0350000001] yes=71,no=72,missing=71,gain=0.370375037,cover=3.68608451
						71:leaf=-0.240539029,cover=2.66433358
						72:leaf=-0.0174115021,cover=1.02175081
				26:[f149<336] yes=45,no=46,missing=46,gain=2.50944209,cover=8.78847408
					45:leaf=0.14754872,cover=1.5767014
					46:[f158<1.40999997] yes=73,no=74,missing=74,gain=1.48423862,cover=7.21177292
						73:leaf=0.0364574492,cover=1.58497286
						74:leaf=-0.266320467,cover=5.62680006
			14:[f161<0.49000001] yes=27,no=28,missing=28,gain=5.72111368,cover=16.7494659
				27:[f146<0.36500001] yes=47,no=48,missing=48,gain=1.13463402,cover=15.1881695
					47:leaf=-0.00595098315,cover=1.87956321
					48:[f140<4.68999958] yes=75,no=76,missing=75,gain=1.03058338,cover=13.3086061
						75:leaf=-0.293292105,cover=10.9782305
						76:leaf=-0.0497668833,cover=2.33037591
				28:leaf=0.266831845,cover=1.56129599
booster[14]
0:[f143<35.7000008] yes=1,no=2,missing=1,gain=25.9317627,cover=2199.08398
	1:[f143<26.9500008] yes=3,no=4,missing=4,gain=6.45349121,cover=2012.31348
		3:[f142<70.5] yes=7,no=8,missing=7,gain=2.60693359,cover=1610.31372
			7:[f154<55.6500015] yes=15,no=16,missing=15,gain=0.859130859,cover=1608.92322
				15:[f39<-9.53674316e-07] yes=29,no=30,missing=29,gain=0.29675293,cover=1607.8938
					29:[f157<574.5] yes=55,no=56,missing=55,gain=0.202514648,cover=1479.83557
						55:leaf=-0.300000012,cover=1477.66992
						56:leaf=-0.115107171,cover=2.16566777
					30:[f140<3.24499989] yes=57,no=58,missing=58,gain=2.83156586,cover=128.058197
						57:leaf=0.121957637,cover=1.11960518
						58:leaf=-0.274069637,cover=126.938591
				16:leaf=-0.0123123107,cover=1.02943742
			8:leaf=0.0694624484,cover=1.39058745
		4:[f19<-9.53674316e-07] yes=9,no=10,missing=9,gain=8.14285278,cover=401.999695
			9:[f147<23.0499992] yes=17,no=18,missing=17,gain=5.7665329,cover=107.855301
				17:[f145<50.5] yes=31,no=32,missing=32,gain=9.65354538,cover=39.5197639
					31:leaf=0.300000012,cover=1.50850165
					32:[f1<34.5] yes=59,no=60,missing=59,gain=7.03974962,cover=38.0112648
						59:leaf=-0.269446135,cover=15.7501135
						60:leaf=-0.0114428392,cover=22.2611504
				18:[f140<3.21500015] yes=33,no=34,missing=34,gain=2.47295761,cover=68.3355408
					33:leaf=0.130676955,cover=1.07326806
					34:[f148<0.702499986] yes=61,no=62,missing=62,gain=1.66175461,cover=67.2622681
						61:leaf=-0.136515409,cover=15.0316639
						62:leaf=-0.265825659,cover=52.2306061
			10:[f140<3.60500002] yes=19,no=20,missing=20,gain=1.76881409,cover=294.144379
				19:[f154<40.9500008] yes=35,no=36,missing=35,gain=4.09687281,cover=6.33088493
					35:leaf=-0.247789949,cover=4.34699106
					36:leaf=0.196282133,cover=1.98389387
				20:[f17<-9.53674316e-07] yes=37,no=38,missing=37,gain=0.847503662,cover=287.813507
					37:leaf=-0.00414014282,cover=1.00811052
					38:[f154<53.9500008] yes=63,no=64,missing=63,gain=0.758087158,cover=286.805389
						63:leaf=-0.284796774,cover=285.739746
						64:leaf=-0.0156898387,cover=1.06562471
	2:[f48<-9.53674316e-07] yes=5,no=6,missing=5,gain=15.2505875,cover=186.770569
		5:[f141<3.04999995] yes=11,no=12,missing=12,gain=9.09979057,cover=72.4772949
			11:[f149<234] yes=21,no=22,missing=21,gain=2.05188465,cover=21.4406662
				21:[f159<4.81500006] yes=39,no=40,missing=40,gain=3.96627617,cover=4.00448942
					39:leaf=-0.22569491,cover=2.47549272
					40:leaf=0.268381774,cover=1.52899683
				22:[f145<56.5] yes=41,no=42,missing=42,gain=0.673701286,cover=17.4361763
					41:[f144<34.5] yes=65,no=66,missing=65,gain=1.3988874,cover=2.95556545
						65:leaf=-0.207183525,cover=1.94657052
						66:leaf=0.125777274,cover=1.00899494
					42:leaf=-0.290892988,cover=14.4806118
			12:[f151<115.449997] yes=23,no=24,missing=24,gain=9.58548737,cover=51.0366249
				23:[f153<116.5] yes=43,no=44,missing=44,gain=8.97481441,cover=34.6383629
					43:[f1<33.5] yes=67,no=68,missing=67,gain=9.2497921,cover=26.1133995
						67:leaf=-0.199590117,cover=4.03019428
						68:leaf=0.25795272,cover=22.0832062
					44:[f152<54.5] yes=69,no=70,missing=70,gain=2.52212954,cover=8.52496243
						69:leaf=-0.234994546,cover=6.74919891
						70:leaf=0.114433654,cover=1.77576327
				24:[f28<-9.53674316e-07] yes=45,no=46,missing=45,gain=2.23523331,cover=16.398262
					45:[f148<0.574999988] yes=71,no=72,missing=71,gain=0.55059433,cover=11.8352108
						71:leaf=-0.0171584804,cover=1.08130813
						72:leaf=-0.258005619,cover=10.7539034
					46:[f155<15.1499996] yes=73,no=74,missing=74,gain=3.49314618,cover=4.56305075
						73:leaf=-0.216336757,cover=2.26305771
						74:leaf=0.221412301,cover=2.29999328
		6:[f28<-9.53674316e-07] yes=13,no=14,missing=13,gain=4.17186737,cover=114.293282
			13:[f154<50.0499992] yes=25,no=26,missing=25,gain=1.29216003,cover=89.4326172
				25:[f150<98.3499985] yes=47,no=48,missing=48,gain=0.770233154,cover=87.2434006
					47:leaf=-0.00953311846,cover=1.04473889
					48:[f160<1.22500002] yes=75,no=76,missing=76,gain=0.814910889,cover=86.1986618
						75:leaf=-0.281253815,cover=85.1917572
						76:leaf=-0.00487002404,cover=1.00691056
				26:[f151<111.449997] yes=49,no=50,missing=50,gain=1.06426406,cover=2.18921399
					49:leaf=0.13728556,cover=1.00250494
					50:leaf=-0.166359216,cover=1.18670917
			14:[f160<0.375] yes=27,no=28,missing=28,gain=6.91862011,cover=24.8606625
				27:[f1<41.5] yes=51,no=52,missing=51,gain=8.64067841,cover=4.82759476
					51:leaf=-0.219519004,cover=2.55548644
					52:[f159<3.3499999] yes=77,no=78,missing=78,gain=0.241893768,cover=2.27210855
						77:leaf=0.300000012,cover=1.07835186
						78:leaf=0.0742804185,cover=1.1937567
				28:[f151<64.5500031] yes=53,no=54,missing=54,gain=3.18238449,cover=20.0330677
					53:leaf=0.131403849,cover=1.74428451
					54:[f157<178.5] yes=79,no=80,missing=80,gain=2.31116486,cover=18.288784
						79:leaf=-0.0162797756,cover=3.64592052
						80:leaf=-0.286193192,cover=14.6428633
booster[15]
0:[f143<29.8999996] yes=1,no=2,missing=2,gain=30.0959473,cover=1681.24402
	1:[f21<-9.53674316e-07] yes=3,no=4,missing=3,gain=2.93286133,cover=1313.04272
		3:[f142<23.5] yes=7,no=8,missing=8,gain=3.61958313,cover=9.86218929
			7:[f151<68.5] yes=15,no=16,missing=16,gain=0.601746082,cover=6.74925661
				15:leaf=-0.00491911219,cover=1.00266731
				16:leaf=-0.259015441,cover=5.74658918
			8:[f154<44.5499992] yes=17,no=18,missing=18,gain=2.76017857,cover=3.11293316
				17:leaf=-0.163030595,cover=1.14785838
				18:leaf=0.295188248,cover=1.96507466
		4:[f146<0.105000004] yes=9,no=10,missing=10,gain=1.92004395,cover=1303.18054
			9:leaf=0.00262684724,cover=1.94982624
			10:[f142<70.5] yes=19,no=20,missing=19,gain=1.74707031,cover=1301.23071
				19:[f39<-9.53674316e-07] yes=29,no=30,missing=29,gain=0.852172852,cover=1299.19482
					29:leaf=-0.297576576,cover=1189.83899
					30:[f141<3.45000005] yes=47,no=48,missing=47,gain=2.52542877,cover=109.355858
						47:leaf=-0.266741127,cover=104.861931
						48:leaf=-0.0299157314,cover=4.49392986
				20:[f152<41.5] yes=31,no=32,missing=31,gain=1.02571678,cover=2.03584194
					31:leaf=0.144526675,cover=1.00014853
					32:leaf=-0.158109635,cover=1.03569329
	2:[f48<-9.53674316e-07] yes=5,no=6,missing=5,gain=26.1428223,cover=368.201294
		5:[f104<-9.53674316e-07] yes=11,no=12,missing=11,gain=11.2138796,cover=126.011589
			11:[f1<34.5] yes=21,no=22,missing=21,gain=11.6182175,cover=102.442307
				21:[f149<281.5] yes=33,no=34,missing=34,gain=2.73245335,cover=20.0242577
					33:leaf=0.14118202,cover=1.01369774
					34:[f1<32.5] yes=49,no=50,missing=49,gain=0.756469727,cover=19.0105591
						49:leaf=-0.28946349,cover=16.0585194
						50:leaf=-0.0849331468,cover=2.95204067
				22:[f150<218.100006] yes=35,no=36,missing=35,gain=10.3103848,cover=82.4180527
					35:[f1<52.5] yes=51,no=52,missing=51,gain=12.1925135,cover=69.3631821
						51:leaf=0.223846048,cover=24.6991749
						52:leaf=-0.0348795056,cover=44.6640053
					36:[f141<3.25] yes=53,no=54,missing=53,gain=3.50521278,cover=13.0548735
						53:leaf=-0.282478899,cover=11.204318
						54:leaf=0.113110833,cover=1.85055602
			12:[f153<79.5] yes=23,no=24,missing=24,gain=0.881177902,cover=23.5692825
				23:[f159<4.05500031] yes=37,no=38,missing=38,gain=1.03033614,cover=2.28210521
					37:leaf=0.115474537,cover=1.00307918
					38:leaf=-0.183366835,cover=1.27902591
				24:[f158<0.824999988] yes=39,no=40,missing=40,gain=0.883424759,cover=21.2871761
					39:leaf=-0.00426639104,cover=1.00691986
					40:leaf=-0.296141535,cover=20.2802563
		6:[f28<-9.53674316e-07] yes=13,no=14,missing=13,gain=4.30079651,cover=242.189697
			13:[f154<51.6500015] yes=25,no=26,missing=25,gain=1.91184998,cover=187.703506
				25:[f151<60.0499992] yes=41,no=42,missing=42,gain=2.01512146,cover=185.996582
					41:[f156<4.82000017] yes=55,no=56,missing=56,gain=3.61159325,cover=8.54844475
						55:leaf=0.244435981,cover=1.19482839
						56:leaf=-0.195927337,cover=7.35361671
					42:[f31<-9.53674316e-07] yes=57,no=58,missing=57,gain=1.58616638,cover=177.448135
						57:leaf=-0.28693381,cover=175.269821
						58:leaf=-0.0197708141,cover=2.1783185
				26:leaf=0.027331423,cover=1.70692587
			14:[f1<44.5] yes=27,no=28,missing=27,gain=7.91238785,cover=54.4861794
				27:[f143<50.5] yes=43,no=44,missing=43,gain=1.27904892,cover=40.1034927
					43:[f160<0.975000024] yes=59,no=60,missing=60,gain=1.06513977,cover=36.2743454
						59:leaf=-0.292532951,cover=25.2897301
						60:leaf=-0.153336227,cover=10.9846153
					44:[f158<2.9749999] yes=61,no=62,missing=61,gain=3.94116282,cover=3.82914782
						61:leaf=-0.225410819,cover=2.8262496
						62:leaf=0.295900822,cover=1.00289822
				28:[f23<-9.53674316e-07] yes=45,no=46,missing=45,gain=10.382432,cover=14.3826866
					45:[f157<131.5] yes=63,no=64,missing=63,gain=5.42857742,cover=9.18889332
						63:leaf=0.237139389,cover=1.5882467
						64:leaf=-0.271411121,cover=7.6006465
					46:[f142<41.5] yes=65,no=66,missing=66,gain=6.28262806,cover=5.1937933
						65:leaf=-0.192025304,cover=1.70742047
						66:leaf=0.300000012,cover=3.48637295
booster[16]
0:[f143<29.8999996] yes=1,no=2,missing=2,gain=33.8905029,cover=1294.55188
	1:[f21<-9.53674316e-07] yes=3,no=4,missing=3,gain=3.08551025,cover=986.774963
		3:[f142<23.5] yes=7,no=8,missing=8,gain=2.46294093,cover=8.98660564
			7:[f149<164.5] yes=15,no=16,missing=15,gain=0.541666269,cover=5.46062803
				15:leaf=-0.00383475213,cover=1.00016832
				16:leaf=-0.247886345,cover=4.46045971
			8:[f149<367] yes=17,no=18,missing=17,gain=2.2848649,cover=3.52597737
				17:[f140<4.30500031] yes=31,no=32,missing=32,gain=1.44161463,cover=2.31501198
					31:leaf=0.300000012,cover=1.14753866
					32:leaf=-0.0305678863,cover=1.1674732
				18:leaf=-0.171024323,cover=1.21096539
		4:[f39<-9.53674316e-07] yes=9,no=10,missing=9,gain=1.93914795,cover=977.788391
			9:[f158<0.435000002] yes=19,no=20,missing=20,gain=0.935852051,cover=892.267578
				19:leaf=-0.00237095798,cover=1.00478542
				20:[f142<80.5] yes=33,no=34,missing=33,gain=0.83026123,cover=891.262756
					33:[f144<87.5] yes=53,no=54,missing=53,gain=0.0836791992,cover=890.219666
						53:leaf=-0.295682609,cover=878.29425
						54:leaf=-0.209635168,cover=11.9254274
					34:leaf=-0.0134459333,cover=1.04310763
			10:[f155<16.8499985] yes=21,no=22,missing=22,gain=2.55805588,cover=85.520813
				21:[f140<4.26500034] yes=35,no=36,missing=36,gain=2.53728867,cover=84.4634628
					35:[f142<20.5] yes=55,no=56,missing=55,gain=5.38370705,cover=28.4458294
						55:leaf=-0.244356975,cover=19.5894089
						56:leaf=0.0320715867,cover=8.85641956
					36:[f157<139.5] yes=57,no=58,missing=58,gain=0.860652924,cover=56.0176315
						57:leaf=-0.00417540362,cover=1.01841593
						58:leaf=-0.286620796,cover=54.9992142
				22:leaf=0.134042203,cover=1.05735588
	2:[f48<-9.53674316e-07] yes=5,no=6,missing=5,gain=22.7019348,cover=307.776855
		5:[f104<-9.53674316e-07] yes=11,no=12,missing=11,gain=8.57085323,cover=118.372139
			11:[f140<4.09500027] yes=23,no=24,missing=24,gain=10.2762308,cover=99.8459015
				23:[f151<123.050003] yes=37,no=38,missing=38,gain=7.71017981,cover=17.228529
					37:[f155<13.0500002] yes=59,no=60,missing=60,gain=6.68211079,cover=14.4195051
						59:leaf=-0.0584508851,cover=4.58200932
						60:leaf=0.300000012,cover=9.8374958
					38:leaf=-0.227062613,cover=2.80902457
				24:[f5<-9.53674316e-07] yes=39,no=40,missing=39,gain=10.3407831,cover=82.6173782
					39:[f58<-9.53674316e-07] yes=61,no=62,missing=61,gain=9.30569553,cover=9.1540041
						61:leaf=0.300000012,cover=6.46245623
						62:leaf=-0.22358726,cover=2.69154835
					40:[f148<0.834999979] yes=63,no=64,missing=64,gain=4.47245121,cover=73.4633713
						63:leaf=-0.0330313891,cover=33.707653
						64:leaf=-0.18192625,cover=39.7557182
			12:[f153<79.5] yes=25,no=26,missing=26,gain=0.825616837,cover=18.5262356
				25:[f156<6.81500006] yes=41,no=42,missing=42,gain=0.914720237,cover=2.17859435
					41:leaf=0.110099263,cover=1.00425792
					42:leaf=-0.174037069,cover=1.17433631
				26:[f158<0.824999988] yes=43,no=44,missing=44,gain=0.835015297,cover=16.3476429
					43:leaf=-0.00363297877,cover=1.00281179
					44:leaf=-0.289330542,cover=15.3448305
		6:[f28<-9.53674316e-07] yes=13,no=14,missing=13,gain=4.64281464,cover=189.404709
			13:[f151<60.0499992] yes=27,no=28,missing=28,gain=2.07472992,cover=143.881912
				27:[f148<0.764999986] yes=45,no=46,missing=46,gain=3.2939558,cover=7.64012146
					45:[f157<209.5] yes=65,no=66,missing=66,gain=5.877141,cover=3.34866214
						65:leaf=0.300000012,cover=1.30049515
						66:leaf=-0.204072252,cover=2.04816699
					46:leaf=-0.24633415,cover=4.29145956
				28:[f154<50.0499992] yes=47,no=48,missing=47,gain=1.93305206,cover=136.241791
					47:[f31<-9.53674316e-07] yes=67,no=68,missing=67,gain=1.57460022,cover=132.78746
						67:leaf=-0.282359123,cover=130.663864
						68:leaf=-0.0147286709,cover=2.12358403
					48:[f1<47.5] yes=69,no=70,missing=69,gain=2.85356355,cover=3.4543345
						69:leaf=-0.210966393,cover=2.24446464
						70:leaf=0.232084289,cover=1.20986962
			14:[f1<35.5] yes=29,no=30,missing=29,gain=6.96879482,cover=45.5228043
				29:[f160<0.944999993] yes=49,no=50,missing=49,gain=0.727424622,cover=24.0469723
					49:[f151<61.1999969] yes=71,no=72,missing=72,gain=0.706342697,cover=23.0417042
						71:leaf=-0.0127156777,cover=1.05181932
						72:leaf=-0.276831746,cover=21.9898834
					50:leaf=-0.00265684887,cover=1.00526905
				30:[f160<0.38499999] yes=51,no=52,missing=51,gain=10.8217392,cover=21.4758301
					51:[f142<42.5] yes=73,no=74,missing=74,gain=4.90564775,cover=7.64148283
						73:leaf=-0.178793535,cover=1.42651498
						74:leaf=0.300000012,cover=6.21496773
					52:[f143<51.5] yes=75,no=76,missing=75,gain=3.37948847,cover=13.8343477
						75:leaf=-0.252224177,cover=10.6175165
						76:leaf=0.0759271905,cover=3.21683121
booster[17]
0:[f143<29.8999996] yes=1,no=2,missing=2,gain=36.9782104,cover=1005.63116
	1:[f21<-9.53674316e-07] yes=3,no=4,missing=3,gain=3.27636719,cover=744.359863
		3:[f159<7.13000011] yes=7,no=8,missing=7,gain=2.11239719,cover=8.13020897
			7:[f88<-9.53674316e-07] yes=15,no=16,missing=15,gain=1.27116013,cover=6.62052584
				15:[f159<3.00500011] yes=29,no=30,missing=29,gain=0.451930523,cover=5.23224926
					29:leaf=-0.0140445624,cover=1.01199102
					30:leaf=-0.248027161,cover=4.22025824
				16:leaf=0.067301251,cover=1.3882767
			8:leaf=0.169669956,cover=1.50968289
		4:[f39<-9.53674316e-07] yes=9,no=10,missing=9,gain=2.58691406,cover=736.229614
			9:[f158<0.435000002] yes=17,no=18,missing=18,gain=0.916320801,cover=667.99054
				17:leaf=-0.00201723259,cover=1.00245726
				18:[f142<80.5] yes=31,no=32,missing=31,gain=0.823852539,cover=666.988098
					31:[f143<26.8499985] yes=51,no=52,missing=52,gain=0.377258301,cover=665.957703
						51:leaf=-0.295016348,cover=613.594788
						52:leaf=-0.245828554,cover=52.3628922
					32:leaf=-0.0114705227,cover=1.03038299
			10:[f142<19.5] yes=19,no=20,missing=19,gain=2.68579865,cover=68.23909
				19:[f141<3.45000005] yes=33,no=34,missing=33,gain=1.65766907,cover=39.2553329
					33:[f160<0.204999998] yes=53,no=54,missing=54,gain=0.670261383,cover=37.2130432
						53:leaf=-0.0386791155,cover=1.28582537
						54:leaf=-0.293900251,cover=35.9272156
					34:[f151<104.550003] yes=55,no=56,missing=55,gain=1.02579427,cover=2.04229116
						55:leaf=0.148048952,cover=1.00274456
						56:leaf=-0.154258132,cover=1.03954661
				20:[f147<23.1000004] yes=35,no=36,missing=36,gain=4.58822203,cover=28.9837551
					35:[f151<114.600006] yes=57,no=58,missing=58,gain=4.79438972,cover=4.86769962
						57:leaf=0.300000012,cover=2.90836453
						58:leaf=-0.200391367,cover=1.95933521
					36:[f157<331.5] yes=59,no=60,missing=59,gain=4.76163483,cover=24.1160564
						59:leaf=-0.237111285,cover=21.9469776
						60:leaf=0.171586514,cover=2.1690793
	2:[f1<34.5] yes=5,no=6,missing=5,gain=20.1002121,cover=261.271332
		5:[f145<53.5] yes=11,no=12,missing=12,gain=3.03503418,cover=94.9773331
			11:[f154<38.9500008] yes=21,no=22,missing=22,gain=5.03905392,cover=5.78107643
				21:[f151<89.3000031] yes=37,no=38,missing=38,gain=3.78068113,cover=2.20282483
					37:leaf=0.300000012,cover=1.12386119
					38:leaf=-0.158606216,cover=1.07896364
				22:leaf=-0.238065049,cover=3.5782516
			12:[f152<30.5] yes=23,no=24,missing=24,gain=1.79964447,cover=89.1962585
				23:[f158<2.00500011] yes=39,no=40,missing=40,gain=2.71115708,cover=3.64327216
					39:leaf=0.211789221,cover=1.28146183
					40:leaf=-0.21375531,cover=2.36181021
				24:[f141<3.6500001] yes=41,no=42,missing=41,gain=0.764099121,cover=85.5529861
					41:[f153<121.5] yes=61,no=62,missing=61,gain=0.400054932,cover=84.4462891
						61:leaf=-0.288473725,cover=82.7932129
						62:leaf=-0.0756993815,cover=1.65307415
					42:leaf=-0.0174920764,cover=1.10669196
		6:[f39<-9.53674316e-07] yes=13,no=14,missing=13,gain=11.5708218,cover=166.293991
			13:[f28<-9.53674316e-07] yes=25,no=26,missing=25,gain=10.9686909,cover=118.276123
				25:[f160<0.894999981] yes=43,no=44,missing=43,gain=3.21960449,cover=87.7482758
					43:[f155<16.3499985] yes=63,no=64,missing=63,gain=3.02005386,cover=85.0639572
						63:leaf=-0.21288231,cover=80.9210129
						64:leaf=0.0408007652,cover=4.14294672
					44:[f140<4.125] yes=65,no=66,missing=66,gain=3.96947551,cover=2.6843226
						65:leaf=0.300000012,cover=1.15983152
						66:leaf=-0.183362126,cover=1.52449107
				26:[f157<252.5] yes=45,no=46,missing=45,gain=9.2043457,cover=30.5278435
					45:[f159<3.30499983] yes=67,no=68,missing=68,gain=7.81751299,cover=22.44594
						67:leaf=0.300000012,cover=4.96266222
						68:leaf=0.00762006035,cover=17.4832783
					46:[f144<111.5] yes=69,no=70,missing=69,gain=0.641696453,cover=8.08190346
						69:leaf=-0.267185837,cover=7.07165051
						70:leaf=-0.00671990914,cover=1.01025248
			14:[f140<4.29500008] yes=27,no=28,missing=27,gain=6.18375778,cover=48.0178757
				27:[f157<237.5] yes=47,no=48,missing=48,gain=7.96802139,cover=27.7452641
					47:[f159<2.57999992] yes=71,no=72,missing=71,gain=4.82688904,cover=13.9487562
						71:leaf=-0.0825025365,cover=2.62836051
						72:leaf=0.300000012,cover=11.3203955
					48:[f29<-9.53674316e-07] yes=73,no=74,missing=73,gain=5.65953827,cover=13.7965088
						73:leaf=0.154653564,cover=6.58127832
						74:leaf=-0.205170989,cover=7.21522999
				28:[f158<1.57500005] yes=49,no=50,missing=50,gain=3.63180161,cover=20.2726097
					49:[f1<57.5] yes=75,no=76,missing=75,gain=3.27972174,cover=3.12996507
						75:leaf=0.300000012,cover=2.03554201
						76:leaf=-0.163762048,cover=1.09442294
					50:[f147<47.5] yes=77,no=78,missing=78,gain=4.06476402,cover=17.1426449
						77:leaf=-0.182606027,cover=16.0874138
						78:leaf=0.275269568,cover=1.0552305
booster[18]
0:[f143<28.8999996] yes=1,no=2,missing=2,gain=38.9680786,cover=789.75531
	1:[f39<-9.53674316e-07] yes=3,no=4,missing=3,gain=3.93411255,cover=549.696594
		3:[f21<-9.53674316e-07] yes=7,no=8,missing=7,gain=1.81655884,cover=495.605347
			7:[f140<4.20499992] yes=15,no=16,missing=16,gain=2.93573761,cover=6.33416605
				15:[f56<-9.53674316e-07] yes=31,no=32,missing=31,gain=3.12663007,cover=2.42188334
					31:leaf=-0.165625364,cover=1.19427741
					32:leaf=0.300000012,cover=1.22760594
				16:leaf=-0.24305591,cover=3.91228294
			8:[f142<76.5] yes=17,no=18,missing=17,gain=0.820800781,cover=489.271179
				17:[f144<87.5] yes=33,no=34,missing=33,gain=0.854217529,cover=488.25116
					33:[f5<-9.53674316e-07] yes=55,no=56,missing=55,gain=0.881958008,cover=481.564514
						55:leaf=-0.192348793,cover=15.5148802
						56:leaf=-0.293679535,cover=466.049652
					34:[f147<23.1000004] yes=57,no=58,missing=58,gain=3.84013224,cover=6.6866374
						57:leaf=0.206118867,cover=1.36651039
						58:leaf=-0.2538504,cover=5.32012701
				18:leaf=-0.0097918883,cover=1.02001083
		4:[f142<19.5] yes=9,no=10,missing=9,gain=3.80442047,cover=54.0912819
			9:[f141<3.45000005] yes=19,no=20,missing=19,gain=1.57152367,cover=30.2109165
				19:[f153<148.5] yes=35,no=36,missing=35,gain=0.887456894,cover=28.1716995
					35:leaf=-0.290864646,cover=27.1614418
					36:leaf=-0.00234631589,cover=1.01025712
				20:[f146<0.50999999] yes=37,no=38,missing=38,gain=1.02792037,cover=2.03921771
					37:leaf=0.148492381,cover=1.00071549
					38:leaf=-0.154239938,cover=1.03850222
			10:[f153<88.5] yes=21,no=22,missing=22,gain=3.51755834,cover=23.8803654
				21:[f1<44.5] yes=39,no=40,missing=39,gain=4.50170565,cover=6.92761183
					39:[f146<0.435000002] yes=59,no=60,missing=60,gain=3.40937948,cover=4.7515955
						59:leaf=0.221449926,cover=1.27997434
						60:leaf=-0.234926209,cover=3.47162127
					40:[f161<0.164999992] yes=61,no=62,missing=61,gain=1.50978804,cover=2.17601633
						61:leaf=0.300000012,cover=1.01652777
						62:leaf=-0.0234180745,cover=1.15948844
				22:[f146<1.65999997] yes=41,no=42,missing=42,gain=3.92727184,cover=16.9527531
					41:[f154<39.8499985] yes=63,no=64,missing=64,gain=2.08817863,cover=15.6611872
						63:leaf=-0.0310502071,cover=4.53506041
						64:leaf=-0.277262092,cover=11.1261263
					42:leaf=0.222402379,cover=1.29156625
	2:[f1<34.5] yes=5,no=6,missing=5,gain=17.6531067,cover=240.058716
		5:[f145<54.5] yes=11,no=12,missing=12,gain=3.74778366,cover=79.2032242
			11:[f151<89.3000031] yes=23,no=24,missing=24,gain=4.64253044,cover=6.38618755
				23:[f146<0.425000012] yes=43,no=44,missing=43,gain=4.01841831,cover=3.01587963
					43:leaf=0.300000012,cover=1.09180272
					44:leaf=-0.10605453,cover=1.92407691
				24:leaf=-0.234165087,cover=3.37030816
			12:[f152<30.5] yes=25,no=26,missing=26,gain=1.66043091,cover=72.8170395
				25:[f147<27.5] yes=45,no=46,missing=45,gain=2.36364388,cover=3.63064933
					45:leaf=-0.210299104,cover=2.24196482
					46:leaf=0.185020342,cover=1.38868463
				26:[f141<3.6500001] yes=47,no=48,missing=47,gain=0.659606934,cover=69.1863861
					47:[f5<-9.53674316e-07] yes=65,no=66,missing=65,gain=0.450756073,cover=67.9938126
						65:leaf=-0.0641432554,cover=1.52670419
						66:leaf=-0.284299046,cover=66.4671021
					48:leaf=-0.0285570491,cover=1.19258022
		6:[f154<38.3499985] yes=13,no=14,missing=14,gain=11.1316032,cover=160.855484
			13:[f154<29.0499992] yes=27,no=28,missing=28,gain=0.743518829,cover=23.7212925
				27:leaf=-0.00330681144,cover=1.00454426
				28:[f154<37.8499985] yes=49,no=50,missing=50,gain=0.246273041,cover=22.7167492
					49:leaf=-0.290018052,cover=18.7050266
					50:[f154<37.9500008] yes=67,no=68,missing=68,gain=1.32496071,cover=4.01172161
						67:leaf=0.0863733143,cover=1.14218163
						68:leaf=-0.226702213,cover=2.86953998
			14:[f151<126.75] yes=29,no=30,missing=29,gain=11.8131199,cover=137.134186
				29:[f23<-9.53674316e-07] yes=51,no=52,missing=51,gain=11.5201244,cover=109.993614
					51:[f140<3.91499996] yes=69,no=70,missing=70,gain=9.73047256,cover=75.4427643
						69:leaf=0.195322007,cover=10.4298601
						70:leaf=-0.105126388,cover=65.0129089
					52:[f142<36.5] yes=71,no=72,missing=71,gain=9.99582767,cover=34.5508461
						71:leaf=-0.00985436048,cover=18.1887302
						72:leaf=0.300000012,cover=16.3621159
				30:[f147<48.9500008] yes=53,no=54,missing=53,gain=3.39968491,cover=27.1405792
					53:[f157<142.5] yes=73,no=74,missing=74,gain=2.31941032,cover=25.886692
						73:leaf=0.101595886,cover=1.21131814
						74:leaf=-0.258097231,cover=24.6753731
					54:leaf=0.172181726,cover=1.25388777
booster[19]
0:[f143<26.9500008] yes=1,no=2,missing=2,gain=40.0009766,cover=630.312317
	1:[f39<-9.53674316e-07] yes=3,no=4,missing=3,gain=3.89279175,cover=391.008179
		3:[f157<540.5] yes=7,no=8,missing=7,gain=0.840362549,cover=350.308502
			7:[f142<70.5] yes=15,no=16,missing=15,gain=0.790344238,cover=349.301208
				15:[f155<17.3499985] yes=29,no=30,missing=29,gain=0.728881836,cover=348.253571
					29:[f148<1.43499994] yes=51,no=52,missing=51,gain=0.181091309,cover=347.052094
						51:leaf=-0.29056105,cover=341.27359
						52:leaf=-0.168156832,cover=5.77850151
					30:leaf=-0.0285410229,cover=1.20145631
				16:leaf=-0.0135972695,cover=1.04763818
			8:leaf=-0.00645032478,cover=1.00731885
		4:[f142<19.5] yes=9,no=10,missing=9,gain=3.08893681,cover=40.6996651
			9:[f141<3.45000005] yes=17,no=18,missing=17,gain=1.50592422,cover=22.8862915
				17:[f160<0.215000004] yes=31,no=32,missing=31,gain=0.856861115,cover=20.897665
					31:leaf=-0.00165403762,cover=1.00604963
					32:leaf=-0.286760002,cover=19.8916149
				18:leaf=-0.000716187293,cover=1.98862576
			10:[f153<88.5] yes=19,no=20,missing=20,gain=3.33523464,cover=17.8133736
				19:[f1<50.5] yes=33,no=34,missing=33,gain=3.95183015,cover=5.70472574
					33:[f146<0.435000002] yes=53,no=54,missing=54,gain=2.41377926,cover=4.1797471
						53:leaf=0.16587314,cover=1.54158449
						54:leaf=-0.218996227,cover=2.63816261
					34:leaf=0.300000012,cover=1.5249784
				20:[f146<1.65999997] yes=35,no=36,missing=36,gain=3.84905815,cover=12.1086483
					35:[f148<0.61500001] yes=55,no=56,missing=56,gain=1.970016,cover=10.7677727
						55:leaf=0.0628295541,cover=1.47177267
						56:leaf=-0.27241838,cover=9.29599953
					36:leaf=0.211070567,cover=1.3408761
	2:[f48<-9.53674316e-07] yes=5,no=6,missing=5,gain=17.6922188,cover=239.304169
		5:[f104<-9.53674316e-07] yes=11,no=12,missing=11,gain=7.10113239,cover=106.577332
			11:[f152<43.5] yes=21,no=22,missing=21,gain=7.00689173,cover=92.3160629
				21:[f147<23.0499992] yes=37,no=38,missing=37,gain=6.51688194,cover=42.720089
					37:[f141<2.95000005] yes=57,no=58,missing=57,gain=5.89315319,cover=19.3182163
						57:leaf=-0.0277749151,cover=17.2267666
						58:leaf=0.300000012,cover=2.09145021
					38:[f140<3.60500002] yes=59,no=60,missing=59,gain=2.20182419,cover=23.4018707
						59:leaf=0.0113526946,cover=4.04856825
						60:leaf=-0.22818701,cover=19.3533039
				22:[f160<0.425000012] yes=39,no=40,missing=40,gain=7.00815248,cover=49.595974
					39:[f155<13.0500002] yes=61,no=62,missing=62,gain=5.13987684,cover=22.6312733
						61:leaf=0.168796465,cover=6.36607265
						62:leaf=-0.131102443,cover=16.2651997
					40:[f141<3.1500001] yes=63,no=64,missing=64,gain=8.65468216,cover=26.9647007
						63:leaf=-0.0635053143,cover=8.62207222
						64:leaf=0.291572034,cover=18.3426285
			12:[f155<10.9499998] yes=23,no=24,missing=24,gain=2.14534283,cover=14.2612705
				23:[f140<4.09500027] yes=41,no=42,missing=41,gain=2.50462031,cover=2.6418705
					41:leaf=-0.184236899,cover=1.54121995
					42:leaf=0.258826017,cover=1.10065055
				24:[f153<77.5] yes=43,no=44,missing=44,gain=0.17966938,cover=11.6194
					43:leaf=-0.06190015,cover=1.01825523
					44:leaf=-0.282024592,cover=10.6011448
		6:[f1<45.5] yes=13,no=14,missing=13,gain=6.28982925,cover=132.726837
			13:[f31<-9.53674316e-07] yes=25,no=26,missing=25,gain=2.43205261,cover=90.4069672
				25:[f151<64.4499969] yes=45,no=46,missing=46,gain=2.53675842,cover=89.2706833
					45:[f146<0.405000001] yes=65,no=66,missing=65,gain=6.37039185,cover=5.97345304
						65:leaf=0.300000012,cover=1.92200518
						66:leaf=-0.243875325,cover=4.05144787
					46:[f141<3.45000005] yes=67,no=68,missing=67,gain=3.11429214,cover=83.297226
						67:leaf=-0.268512905,cover=79.5685883
						68:leaf=0.00945416559,cover=3.72864246
				26:leaf=0.11994081,cover=1.13628387
			14:[f23<-9.53674316e-07] yes=27,no=28,missing=27,gain=5.8490696,cover=42.31987
				27:[f153<89.5] yes=47,no=48,missing=48,gain=5.16968155,cover=29.8132076
					47:[f142<22.5] yes=69,no=70,missing=70,gain=5.58980465,cover=6.16448593
						69:leaf=0.300000012,cover=1.21993423
						70:leaf=-0.10339842,cover=4.94455194
					48:[f143<59.5] yes=71,no=72,missing=71,gain=3.03337765,cover=23.6487217
						71:leaf=-0.261880457,cover=21.1414928
						72:leaf=0.0643032715,cover=2.50722718
				28:[f157<235.5] yes=49,no=50,missing=49,gain=7.37564278,cover=12.5066643
					49:[f146<0.754999995] yes=73,no=74,missing=73,gain=5.34061289,cover=7.80316925
						73:leaf=0.300000012,cover=6.24930239
						74:leaf=-0.184748843,cover=1.55386698
					50:[f145<65.5] yes=75,no=76,missing=75,gain=0.503326178,cover=4.70349503
						75:leaf=-0.00266199745,cover=1.0096544
						76:leaf=-0.238823652,cover=3.69384074
booster[20]
0:[f143<26.9500008] yes=1,no=2,missing=2,gain=38.9544983,cover=512.296387
	1:[f39<-9.53674316e-07] yes=3,no=4,missing=3,gain=4.53427124,cover=298.002716
		3:[f157<540.5] yes=7,no=8,missing=7,gain=0.81729126,cover=263.775269
			7:[f142<120.5] yes=15,no=16,missing=16,gain=0.807815552,cover=262.774048
				15:[f155<17.3499985] yes=29,no=30,missing=29,gain=0.729995728,cover=261.74118
					29:[f106<-9.53674316e-07] yes=51,no=52,missing=51,gain=0.375320435,cover=260.57312
						51:leaf=-0.285808772,cover=258.891113
						52:leaf=-0.0780673623,cover=1.6819849
					30:leaf=-0.0243017282,cover=1.16808057
				16:leaf=-0.00893320795,cover=1.03285933
			8:leaf=-0.00549889402,cover=1.00122702
		4:[f143<21.75] yes=9,no=10,missing=10,gain=3.04928017,cover=34.2274323
			9:[f141<3.45000005] yes=17,no=18,missing=17,gain=3.17932987,cover=21.8467579
				17:[f146<0.284999996] yes=31,no=32,missing=32,gain=0.767965317,cover=19.8522968
					31:leaf=-0.000826696516,cover=1.00096369
					32:[f160<0.215000004] yes=53,no=54,missing=53,gain=0.848497391,cover=18.8513336
						53:leaf=-0.000875580474,cover=1.00050247
						54:leaf=-0.285262078,cover=17.8508301
				18:leaf=0.0988887921,cover=1.99446118
			10:[f141<3.1500001] yes=19,no=20,missing=20,gain=5.99981546,cover=12.3806734
				19:[f156<6.90499973] yes=33,no=34,missing=33,gain=7.63925838,cover=4.95100832
					33:leaf=-0.208648309,cover=2.24087429
					34:[f144<35.5] yes=55,no=56,missing=56,gain=1.45602512,cover=2.71013379
						55:leaf=0.300000012,cover=1.58230257
						56:leaf=-0.0223065019,cover=1.12783122
				20:[f149<298.5] yes=35,no=36,missing=36,gain=2.56007719,cover=7.42966509
					35:leaf=0.147972986,cover=1.00402105
					36:leaf=-0.261358172,cover=6.4256444
	2:[f1<34.5] yes=5,no=6,missing=5,gain=16.0273132,cover=214.293655
		5:[f145<54.5] yes=11,no=12,missing=12,gain=3.32497406,cover=60.1890182
			11:[f99<-9.53674316e-07] yes=21,no=22,missing=21,gain=3.89233065,cover=6.26943159
				21:[f146<0.925000012] yes=37,no=38,missing=38,gain=0.446366906,cover=4.01469946
					37:leaf=-0.227711454,cover=3.01232719
					38:leaf=-0.00194311119,cover=1.00237238
				22:[f149<272.5] yes=39,no=40,missing=39,gain=4.10106754,cover=2.25473237
					39:leaf=0.300000012,cover=1.06829488
					40:leaf=-0.164328396,cover=1.18643737
			12:[f152<30.5] yes=23,no=24,missing=24,gain=1.70815277,cover=53.9195862
				23:[f142<65.5] yes=41,no=42,missing=41,gain=2.6688211,cover=3.26667404
					41:leaf=-0.204870403,cover=2.10035682
					42:leaf=0.229878142,cover=1.16631711
				24:[f141<3.75] yes=43,no=44,missing=43,gain=0.722751617,cover=50.6529121
					43:[f153<121.5] yes=57,no=58,missing=57,gain=0.706523895,cover=49.595974
						57:leaf=-0.277181804,cover=48.4692802
						58:leaf=-0.0188908186,cover=1.12669551
					44:leaf=-0.0106478892,cover=1.05693781
		6:[f150<199.050003] yes=13,no=14,missing=13,gain=11.1917171,cover=154.10463
			13:[f141<2.6500001] yes=25,no=26,missing=26,gain=9.36976814,cover=117.441338
				25:leaf=-0.258059025,cover=10.6157074
				26:[f104<-9.53674316e-07] yes=45,no=46,missing=45,gain=8.95761681,cover=106.82563
					45:[f148<0.795000017] yes=59,no=60,missing=60,gain=8.65664959,cover=91.9393463
						59:leaf=0.165837914,cover=39.1757851
						60:leaf=-0.0186694264,cover=52.7635612
					46:[f149<324.5] yes=61,no=62,missing=62,gain=2.49903965,cover=14.8862848
						61:leaf=0.0521271341,cover=2.91587281
						62:leaf=-0.239846602,cover=11.9704123
			14:[f152<61.5] yes=27,no=28,missing=27,gain=3.93075562,cover=36.6632919
				27:[f151<163.25] yes=47,no=48,missing=47,gain=0.940946579,cover=26.2568779
					47:[f146<0.305000007] yes=63,no=64,missing=64,gain=0.425268173,cover=21.4290104
						63:leaf=-0.0659484044,cover=1.50579786
						64:leaf=-0.289743543,cover=19.923214
					48:[f147<34.8499985] yes=65,no=66,missing=65,gain=2.36686349,cover=4.82786655
						65:leaf=-0.230477795,cover=3.1533637
						66:leaf=0.138640687,cover=1.67450273
				28:[f152<64.5] yes=49,no=50,missing=50,gain=4.81894827,cover=10.406414
					49:leaf=0.300000012,cover=1.85509861
					50:[f146<0.305000007] yes=67,no=68,missing=67,gain=3.31059241,cover=8.55131531
						67:leaf=0.153719082,cover=2.03059769
						68:leaf=-0.227094755,cover=6.52071714
booster[21]
0:[f143<26.9500008] yes=1,no=2,missing=2,gain=35.7813416,cover=424.747955
	1:[f39<-9.53674316e-07] yes=3,no=4,missing=3,gain=5.23976135,cover=228.302673
		3:[f1<53.5] yes=7,no=8,missing=7,gain=1.13233948,cover=199.513931
			7:[f35<-9.53674316e-07] yes=15,no=16,missing=15,gain=0.80241394,cover=157.797882
				15:leaf=-0.291127175,cover=156.660095
				16:leaf=-0.0196991786,cover=1.13778841
			8:[f154<43.9500008] yes=17,no=18,missing=17,gain=3.37438202,cover=41.7160416
				17:[f148<0.542500019] yes=31,no=32,missing=32,gain=1.58048058,cover=31.5690632
					31:[f144<22.5] yes=49,no=50,missing=50,gain=0.971254647,cover=2.00355434
						49:leaf=0.144896358,cover=1.0004667
						50:leaf=-0.150649101,cover=1.00308764
					32:[f146<0.264999986] yes=51,no=52,missing=52,gain=0.803482056,cover=29.5655079
						51:leaf=-0.0152494721,cover=1.10469675
						52:leaf=-0.290455163,cover=28.4608116
				18:[f1<58.5] yes=33,no=34,missing=33,gain=6.2460103,cover=10.1469784
					33:[f151<100.449997] yes=53,no=54,missing=53,gain=5.8886652,cover=2.63232446
						53:leaf=0.300000012,cover=1.0023905
						54:leaf=-0.186333001,cover=1.62993383
					34:[f149<568.5] yes=55,no=56,missing=56,gain=2.57252789,cover=7.51465368
						55:leaf=-0.260711581,cover=6.51283455
						56:leaf=0.149163157,cover=1.00181925
		4:[f142<19.5] yes=9,no=10,missing=9,gain=3.32206821,cover=28.7887459
			9:[f144<32.5] yes=19,no=20,missing=19,gain=2.07641506,cover=14.8528566
				19:[f160<0.735000014] yes=35,no=36,missing=35,gain=0.784570694,cover=13.490921
					35:leaf=-0.278713614,cover=12.4786253
					36:leaf=-0.00243636058,cover=1.01229584
				20:leaf=0.0803156346,cover=1.3619355
			10:[f150<200.700012] yes=21,no=22,missing=22,gain=3.16135573,cover=13.9358883
				21:[f144<56.5] yes=37,no=38,missing=38,gain=5.46413136,cover=9.13575935
					37:[f143<20.75] yes=57,no=58,missing=58,gain=6.07694197,cover=6.35458326
						57:leaf=-0.19349952,cover=1.78844702
						58:leaf=0.300000012,cover=4.56613636
					38:leaf=-0.222103387,cover=2.78117609
				22:[f151<125.449997] yes=39,no=40,missing=40,gain=0.512440443,cover=4.80012941
					39:leaf=-0.00151439593,cover=1.00276923
					40:leaf=-0.238845363,cover=3.79736018
	2:[f1<34.5] yes=5,no=6,missing=5,gain=12.0415125,cover=196.445282
		5:[f99<-9.53674316e-07] yes=11,no=12,missing=11,gain=3.28038597,cover=47.8681297
			11:[f150<99.0999985] yes=23,no=24,missing=24,gain=2.22808266,cover=42.1508217
				23:leaf=0.115059786,cover=1.00354445
				24:[f142<68.5] yes=41,no=42,missing=41,gain=1.15914917,cover=41.1472778
					41:[f5<-9.53674316e-07] yes=59,no=60,missing=59,gain=0.805696487,cover=36.6621361
						59:leaf=-0.00265538087,cover=1.01229644
						60:leaf=-0.276616961,cover=35.6498413
					42:[f145<74.5] yes=61,no=62,missing=62,gain=2.77708077,cover=4.48514032
						61:leaf=0.181944326,cover=1.48212361
						62:leaf=-0.226640284,cover=3.00301671
			12:[f142<28.5] yes=25,no=26,missing=25,gain=3.59687519,cover=5.71730947
				25:leaf=-0.217899412,cover=2.59978175
				26:[f151<92.9000015] yes=43,no=44,missing=44,gain=4.3416667,cover=3.11752796
					43:leaf=0.300000012,cover=1.76512158
					44:leaf=-0.173853993,cover=1.35240638
		6:[f35<-9.53674316e-07] yes=13,no=14,missing=13,gain=8.47158337,cover=148.577148
			13:[f151<126.75] yes=27,no=28,missing=27,gain=7.34414864,cover=145.32457
				27:[f158<2.59499979] yes=45,no=46,missing=45,gain=5.80346489,cover=123.18512
					45:[f152<46.5] yes=63,no=64,missing=64,gain=5.68529606,cover=94.7562866
						63:leaf=-0.14645879,cover=38.0523796
						64:leaf=0.00225031958,cover=56.703907
					46:[f145<76.5] yes=65,no=66,missing=65,gain=17.5766258,cover=28.4288406
						65:leaf=0.300000012,cover=13.3373423
						66:leaf=-0.126015395,cover=15.0914974
				28:[f147<48.9500008] yes=47,no=48,missing=47,gain=2.20914745,cover=22.1394539
					47:[f157<142.5] yes=67,no=68,missing=68,gain=2.22418022,cover=20.4481239
						67:leaf=0.09570425,cover=1.23138428
						68:leaf=-0.258735836,cover=19.2167397
					48:leaf=0.0828615502,cover=1.69132936
			14:[f23<-9.53674316e-07] yes=29,no=30,missing=29,gain=3.0964489,cover=3.25257492
				29:leaf=-0.0752739757,cover=1.61790073
				30:leaf=0.300000012,cover=1.63467431
booster[22]
0:[f142<23.8999996] yes=1,no=2,missing=2,gain=33.9341354,cover=358.510895
	1:[f1<53.5] yes=3,no=4,missing=3,gain=5.2611084,cover=167.510254
		3:[f146<0.185000002] yes=7,no=8,missing=8,gain=0.862884521,cover=122.015388
			7:leaf=-0.0077165789,cover=1.05037785
			8:[f141<3.75] yes=15,no=16,missing=15,gain=0.277786255,cover=120.965012
				15:leaf=-0.290638298,cover=119.012749
				16:leaf=-0.09751378,cover=1.95226073
		4:[f140<3.1099999] yes=9,no=10,missing=9,gain=4.95461655,cover=45.4948769
			9:[f146<0.414999992] yes=17,no=18,missing=17,gain=4.03491926,cover=2.6771934
				17:leaf=0.300000012,cover=1.40290499
				18:leaf=-0.168828934,cover=1.2742883
			10:[f155<16.25] yes=19,no=20,missing=19,gain=4.0984726,cover=42.8176804
				19:[f148<0.564999998] yes=29,no=30,missing=30,gain=2.80447006,cover=41.5806656
					29:[f160<0.444999993] yes=47,no=48,missing=47,gain=4.29453325,cover=3.21183681
						47:leaf=-0.199142709,cover=1.95007372
						48:leaf=0.300000012,cover=1.2617631
					30:[f39<-9.53674316e-07] yes=49,no=50,missing=49,gain=2.42700386,cover=38.3688316
						49:leaf=-0.262898982,cover=30.4379177
						50:leaf=-0.0666641667,cover=7.93091249
				20:leaf=0.232233211,cover=1.23701489
	2:[f48<-9.53674316e-07] yes=5,no=6,missing=5,gain=15.4159412,cover=191.000641
		5:[f145<109.5] yes=11,no=12,missing=11,gain=6.08416319,cover=97.0000763
			11:[f149<468.5] yes=21,no=22,missing=21,gain=6.87439156,cover=83.3378754
				21:[f150<200.649994] yes=31,no=32,missing=32,gain=5.98157978,cover=75.2505646
					31:[f1<61.5] yes=51,no=52,missing=51,gain=9.01996326,cover=50.7195892
						51:leaf=0.227709681,cover=32.1768837
						52:leaf=-0.0319832042,cover=18.5427055
					32:[f143<32.5] yes=53,no=54,missing=54,gain=4.40102196,cover=24.5309734
						53:leaf=-0.255826533,cover=5.58875751
						54:leaf=0.0276549105,cover=18.942215
				22:[f147<18.5799999] yes=33,no=34,missing=34,gain=2.02949095,cover=8.08731079
					33:leaf=0.115254335,cover=1.00339329
					34:[f162<0.0249999985] yes=55,no=56,missing=56,gain=0.247925758,cover=7.08391762
						55:leaf=-0.050653968,cover=1.01673853
						56:leaf=-0.276056051,cover=6.0671792
			12:[f140<3.90500021] yes=23,no=24,missing=24,gain=3.44399548,cover=13.6622009
				23:[f141<4.14999962] yes=35,no=36,missing=36,gain=3.97068858,cover=4.27584791
					35:leaf=-0.213357627,cover=1.90347075
					36:[f142<41.5] yes=57,no=58,missing=58,gain=1.72981763,cover=2.37237692
						57:leaf=0.300000012,cover=1.26804829
						58:leaf=-0.0442614295,cover=1.10432875
				24:[f148<1.03499997] yes=37,no=38,missing=37,gain=0.771494865,cover=9.38635349
					37:leaf=-0.282830596,cover=8.38543224
					38:leaf=-0.00286437082,cover=1.00092125
		6:[f28<-9.53674316e-07] yes=13,no=14,missing=13,gain=6.06518555,cover=94.0005646
			13:[f151<56.0499992] yes=25,no=26,missing=26,gain=4.16226959,cover=65.6566696
				25:[f156<6.5250001] yes=39,no=40,missing=40,gain=4.68400669,cover=3.56449723
					39:leaf=0.300000012,cover=1.69039237
					40:leaf=-0.197244421,cover=1.87410486
				26:[f141<3.04999995] yes=41,no=42,missing=41,gain=2.76257706,cover=62.0921707
					41:[f5<-9.53674316e-07] yes=59,no=60,missing=59,gain=3.51306915,cover=51.159111
						59:leaf=0.110924371,cover=1.81425166
						60:leaf=-0.265489191,cover=49.3448601
					42:[f154<42.5499992] yes=61,no=62,missing=61,gain=6.69212866,cover=10.9330578
						61:leaf=-0.260096252,cover=6.29715109
						62:leaf=0.177004039,cover=4.63590622
			14:[f143<36.5] yes=27,no=28,missing=28,gain=7.49300528,cover=28.3439007
				27:[f21<-9.53674316e-07] yes=43,no=44,missing=43,gain=2.11899471,cover=11.7767773
					43:leaf=0.110053241,cover=1.11295342
					44:[f158<3.54500008] yes=63,no=64,missing=63,gain=0.751368523,cover=10.6638241
						63:leaf=-0.273013115,cover=9.66317654
						64:leaf=-0.000563791429,cover=1.00064695
				28:[f157<252.5] yes=45,no=46,missing=45,gain=5.10495377,cover=16.5671234
					45:[f147<22.6499996] yes=65,no=66,missing=65,gain=5.20672512,cover=13.7328119
						65:leaf=-0.0144042848,cover=7.23000622
						66:leaf=0.300000012,cover=6.50280571
					46:leaf=-0.223550871,cover=2.83431196
booster[23]
0:[f142<23.8999996] yes=1,no=2,missing=2,gain=28.0049438,cover=310.311859
	1:[f1<53.5] yes=3,no=4,missing=3,gain=5.90277863,cover=130.538971
		3:[f146<0.185000002] yes=7,no=8,missing=8,gain=0.841957092,cover=91.9061661
			7:leaf=-0.00656089745,cover=1.04233944
			8:[f141<3.75] yes=15,no=16,missing=15,gain=0.343193054,cover=90.8638229
				15:leaf=-0.28715694,cover=89.091713
				16:leaf=-0.0842145234,cover=1.77210796
		4:[f90<-9.53674316e-07] yes=9,no=10,missing=9,gain=4.22956848,cover=38.6328087
			9:[f157<337.5] yes=17,no=18,missing=17,gain=2.47548103,cover=23.1402225
				17:[f156<9.82499981] yes=29,no=30,missing=29,gain=1.28186321,cover=20.7933655
					29:[f146<0.224999994] yes=45,no=46,missing=45,gain=0.831792831,cover=18.6001625
						45:leaf=-0.00321246032,cover=1.01837456
						46:leaf=-0.284863591,cover=17.5817871
					30:[f151<77.5500031] yes=47,no=48,missing=47,gain=1.13160467,cover=2.19320393
						47:leaf=0.148739427,cover=1.00061202
						48:leaf=-0.16371046,cover=1.19259191
				18:[f149<399.5] yes=31,no=32,missing=32,gain=2.62268615,cover=2.34685659
					31:leaf=-0.172503129,cover=1.34359336
					32:leaf=0.297479987,cover=1.00326312
			10:[f5<-9.53674316e-07] yes=19,no=20,missing=19,gain=4.79166126,cover=15.4925871
				19:leaf=0.300000012,cover=1.7347368
				20:[f142<21.5] yes=33,no=34,missing=34,gain=4.8448987,cover=13.7578506
					33:[f140<3.90500021] yes=49,no=50,missing=50,gain=3.35118771,cover=11.5530157
						49:leaf=0.110314973,cover=2.58858871
						50:leaf=-0.240760326,cover=8.96442699
					34:[f154<40.9500008] yes=51,no=52,missing=52,gain=1.65838575,cover=2.20483446
						51:leaf=0.300000012,cover=1.00274324
						52:leaf=-0.0337653086,cover=1.20209122
	2:[f1<34.5] yes=5,no=6,missing=5,gain=10.1872139,cover=179.772888
		5:[f145<59.5] yes=11,no=12,missing=12,gain=3.84012413,cover=39.7163811
			11:[f153<79.0999985] yes=21,no=22,missing=22,gain=3.33659697,cover=7.32085323
				21:leaf=0.269177914,cover=1.96211219
				22:[f155<13.0500002] yes=35,no=36,missing=36,gain=1.71069503,cover=5.35874128
					35:[f146<0.405000001] yes=53,no=54,missing=53,gain=1.99218976,cover=2.15317798
						53:leaf=0.263263702,cover=1.09703767
						54:leaf=-0.156939879,cover=1.05614018
					36:leaf=-0.23044835,cover=3.20556331
			12:[f141<3.45000005] yes=23,no=24,missing=23,gain=1.70168877,cover=32.3955269
				23:[f28<-9.53674316e-07] yes=37,no=38,missing=37,gain=1.19842148,cover=30.79422
					37:leaf=-0.287833154,cover=21.602623
					38:[f151<61.1500015] yes=55,no=56,missing=55,gain=2.51825953,cover=9.19159698
						55:leaf=0.0433996543,cover=3.96376944
						56:leaf=-0.253132313,cover=5.22782707
				24:leaf=0.0448690131,cover=1.60130811
		6:[f104<-9.53674316e-07] yes=13,no=14,missing=13,gain=8.48835468,cover=140.056503
			13:[f150<212.449997] yes=25,no=26,missing=25,gain=8.18183136,cover=124.903282
				25:[f152<49.75] yes=39,no=40,missing=39,gain=7.58826828,cover=108.748848
					39:[f141<3.54999995] yes=57,no=58,missing=57,gain=5.80491066,cover=72.9184036
						57:leaf=-0.0387146845,cover=69.3545685
						58:leaf=0.300000012,cover=3.56383824
					40:[f1<67.5] yes=59,no=60,missing=59,gain=8.49775696,cover=35.8304443
						59:leaf=0.224042848,cover=28.1305695
						60:leaf=-0.118591025,cover=7.69987392
				26:[f116<-9.53674316e-07] yes=41,no=42,missing=41,gain=2.00418091,cover=16.1544361
					41:[f161<0.075000003] yes=61,no=62,missing=61,gain=2.08940029,cover=15.1158829
						61:leaf=0.100445271,cover=1.2175622
						62:leaf=-0.245300949,cover=13.8983202
					42:leaf=0.129798353,cover=1.03855371
			14:[f121<-9.53674316e-07] yes=27,no=28,missing=27,gain=1.57155037,cover=15.1532269
				27:leaf=0.040725559,cover=1.55046356
				28:[f142<99.5] yes=43,no=44,missing=43,gain=0.513529778,cover=13.6027632
					43:leaf=-0.27092728,cover=12.4025869
					44:leaf=-0.0335809365,cover=1.20017612
booster[24]
0:[f143<21.9500008] yes=1,no=2,missing=2,gain=23.2933807,cover=274.401001
	1:[f148<1.43499994] yes=3,no=4,missing=3,gain=3.49917603,cover=78.0654144
		3:[f21<-9.53674316e-07] yes=7,no=8,missing=7,gain=2.24709702,cover=76.06633
			7:leaf=0.0795171931,cover=1.29313719
			8:[f152<87.9499969] yes=13,no=14,missing=13,gain=0.790737152,cover=74.7731934
				13:[f1<70.5] yes=21,no=22,missing=21,gain=0.429168701,cover=73.7538757
					21:[f141<3.75] yes=35,no=36,missing=35,gain=0.482006073,cover=69.5660934
						35:leaf=-0.282999396,cover=68.0805206
						36:leaf=-0.0591687076,cover=1.485569
					22:[f148<0.694999993] yes=37,no=38,missing=38,gain=1.99707067,cover=4.18778563
						37:leaf=0.149020493,cover=1.00226724
						38:leaf=-0.228732511,cover=3.1855185
				14:leaf=-0.00315177673,cover=1.01931715
		4:leaf=0.0997058749,cover=1.99907935
	2:[f1<34.5] yes=5,no=6,missing=5,gain=11.207799,cover=196.335587
		5:[f155<10.8500004] yes=9,no=10,missing=10,gain=2.46383286,cover=41.5407219
			9:leaf=0.114166155,cover=1.62639868
			10:[f142<57.5] yes=15,no=16,missing=15,gain=1.86236763,cover=39.9143219
				15:[f152<69.5] yes=23,no=24,missing=23,gain=1.89200783,cover=34.4926262
					23:[f160<0.975000024] yes=39,no=40,missing=40,gain=0.892749786,cover=31.6926727
						39:leaf=-0.278993428,cover=26.3133125
						40:leaf=-0.112440675,cover=5.37935972
					24:[f146<0.405000001] yes=41,no=42,missing=42,gain=2.23356938,cover=2.79995275
						41:leaf=0.224354163,cover=1.19188786
						42:leaf=-0.186485946,cover=1.60806489
				16:[f150<158.149994] yes=25,no=26,missing=26,gain=3.88713884,cover=5.42169857
					25:[f140<4.58500004] yes=43,no=44,missing=44,gain=3.72237301,cover=2.3143425
						43:leaf=-0.16208607,cover=1.11833608
						44:leaf=0.300000012,cover=1.19600654
					26:leaf=-0.228263706,cover=3.10735583
		6:[f28<-9.53674316e-07] yes=11,no=12,missing=11,gain=8.14888668,cover=154.794861
			11:[f39<-9.53674316e-07] yes=17,no=18,missing=17,gain=6.87164783,cover=110.004013
				17:[f140<4.19499969] yes=27,no=28,missing=27,gain=4.77972412,cover=71.2100754
					27:[f152<38.75] yes=45,no=46,missing=45,gain=7.26098251,cover=32.8306694
						45:leaf=-0.226233914,cover=10.6193314
						46:leaf=0.0645161122,cover=22.2113361
					28:[f142<88.5] yes=47,no=48,missing=47,gain=4.78358555,cover=38.3794098
						47:leaf=-0.214724824,cover=36.5002518
						48:leaf=0.202566355,cover=1.87915909
				18:[f156<8.20499992] yes=29,no=30,missing=29,gain=3.64470267,cover=38.7939377
					29:[f159<4.75500011] yes=49,no=50,missing=49,gain=5.16242695,cover=30.7233219
						49:leaf=0.034294609,cover=27.8551483
						50:leaf=0.300000012,cover=2.86817336
					30:[f162<0.0350000001] yes=51,no=52,missing=52,gain=1.77197278,cover=8.07061386
						51:leaf=0.102756731,cover=1.62988687
						52:leaf=-0.197545812,cover=6.44072676
			12:[f150<176.050003] yes=19,no=20,missing=19,gain=6.28836918,cover=44.790844
				19:[f160<0.63499999] yes=31,no=32,missing=32,gain=8.08140469,cover=27.4977818
					31:[f148<0.605000019] yes=53,no=54,missing=53,gain=4.47002983,cover=15.2678728
						53:leaf=-0.0922595859,cover=2.19952273
						54:leaf=0.300000012,cover=13.0683498
					32:[f160<0.845000029] yes=55,no=56,missing=56,gain=2.9573648,cover=12.2299099
						55:leaf=-0.211287096,cover=3.4944036
						56:leaf=0.0829832777,cover=8.73550606
				20:[f159<3.41000009] yes=33,no=34,missing=33,gain=5.15467834,cover=17.2930622
					33:[f157<235.5] yes=57,no=58,missing=57,gain=6.06798887,cover=5.48593426
						57:leaf=-0.122506,cover=3.20157456
						58:leaf=0.300000012,cover=2.28435969
					34:[f143<56.5] yes=59,no=60,missing=59,gain=3.42331767,cover=11.807127
						59:leaf=-0.243392989,cover=9.13689232
						60:leaf=0.107812345,cover=2.67023516
booster[25]
0:[f142<17.9500008] yes=1,no=2,missing=2,gain=20.8923016,cover=244.844879
	1:[f157<329.5] yes=3,no=4,missing=3,gain=2.12804413,cover=55.8197632
		3:[f148<1.43499994] yes=7,no=8,missing=7,gain=1.95672226,cover=48.5011864
			7:[f1<76.5] yes=15,no=16,missing=15,gain=0.731502533,cover=46.6879463
				15:leaf=-0.29392305,cover=45.4637833
				16:leaf=-0.030783141,cover=1.22416306
			8:leaf=0.0194839295,cover=1.81324053
		4:[f151<67.8500061] yes=9,no=10,missing=10,gain=3.68667912,cover=7.31857395
			9:leaf=0.286664486,cover=1.00188863
			10:[f147<36.9000015] yes=17,no=18,missing=18,gain=2.34921527,cover=6.3166852
				17:leaf=-0.252616107,cover=5.28195572
				18:leaf=0.141834199,cover=1.03472948
	2:[f1<44.5] yes=5,no=6,missing=5,gain=7.40348864,cover=189.025116
		5:[f142<65.5] yes=11,no=12,missing=11,gain=5.63888359,cover=79.7207108
			11:[f145<65.25] yes=19,no=20,missing=19,gain=5.00533676,cover=66.5894089
				19:[f152<69.9000015] yes=27,no=28,missing=27,gain=6.29504776,cover=36.8406105
					27:[f28<-9.53674316e-07] yes=43,no=44,missing=43,gain=4.07613611,cover=33.9174347
						43:leaf=-0.186817423,cover=21.6532173
						44:leaf=0.0260010269,cover=12.2642164
					28:[f142<28.5] yes=45,no=46,missing=45,gain=2.71887207,cover=2.92317772
						45:leaf=-0.0642217621,cover=1.52527523
						46:leaf=0.300000012,cover=1.39790249
				20:[f21<-9.53674316e-07] yes=29,no=30,missing=29,gain=1.46642685,cover=29.7487946
					29:leaf=0.0379967913,cover=1.38124573
					30:[f154<50.4500008] yes=47,no=48,missing=47,gain=0.660251617,cover=28.3675499
						47:leaf=-0.262230337,cover=27.3637695
						48:leaf=-0.00723220129,cover=1.00378025
			12:[f161<0.254999995] yes=21,no=22,missing=21,gain=4.91530037,cover=13.1313057
				21:[f147<27.9500008] yes=31,no=32,missing=31,gain=2.11874151,cover=7.93998909
					31:[f156<5.7750001] yes=49,no=50,missing=49,gain=0.0207135677,cover=3.95052075
						49:leaf=-0.0643448979,cover=1.00293922
						50:leaf=-0.241061002,cover=2.94758153
					32:[f145<84.5] yes=51,no=52,missing=52,gain=2.5677557,cover=3.98946857
						51:leaf=0.214723572,cover=2.58842587
						52:leaf=-0.188988999,cover=1.4010427
				22:[f157<242.5] yes=33,no=34,missing=34,gain=3.95703125,cover=5.19131613
					33:[f161<0.314999998] yes=53,no=54,missing=54,gain=0.717433929,cover=3.49342752
						53:leaf=0.300000012,cover=2.29905057
						54:leaf=0.0345971622,cover=1.19437695
					34:leaf=-0.11034824,cover=1.69788885
		6:[f140<4.29500008] yes=13,no=14,missing=13,gain=7.29129791,cover=109.304405
			13:[f104<-9.53674316e-07] yes=23,no=24,missing=23,gain=6.56371593,cover=66.3198471
				23:[f149<469.5] yes=35,no=36,missing=35,gain=5.31527424,cover=58.3184433
					35:[f141<2.95000005] yes=55,no=56,missing=55,gain=7.63295841,cover=51.5251999
						55:leaf=0.0617773868,cover=37.6832581
						56:leaf=0.300000012,cover=13.8419447
					36:[f145<131.5] yes=57,no=58,missing=57,gain=3.27318096,cover=6.79324198
						57:leaf=-0.227635533,cover=5.54629564
						58:leaf=0.20298472,cover=1.24694622
				24:[f1<74.5] yes=37,no=38,missing=37,gain=1.82946396,cover=8.00139999
					37:[f146<1.255] yes=59,no=60,missing=60,gain=0.00651931763,cover=6.77807474
						59:leaf=-0.243701532,cover=5.77701855
						60:leaf=-0.0684652776,cover=1.00105608
					38:leaf=0.102992021,cover=1.22332537
			14:[f28<-9.53674316e-07] yes=25,no=26,missing=25,gain=7.46720982,cover=42.9845581
				25:[f147<18.0499992] yes=39,no=40,missing=40,gain=4.8285656,cover=32.4560585
					39:leaf=0.248896241,cover=1.60021424
					40:[f141<3.6500001] yes=61,no=62,missing=62,gain=3.11898041,cover=30.8558445
						61:leaf=-0.270943254,cover=17.0992889
						62:leaf=-0.0740706027,cover=13.7565556
				26:[f157<251.5] yes=41,no=42,missing=42,gain=4.62955475,cover=10.5285006
					41:[f144<32.5] yes=63,no=64,missing=63,gain=5.81660509,cover=7.54064035
						63:leaf=-0.0828798488,cover=3.404387
						64:leaf=0.300000012,cover=4.13625336
					42:[f142<31.5] yes=65,no=66,missing=66,gain=0.362862825,cover=2.98785973
						65:leaf=-0.00161630299,cover=1.00421023
						66:leaf=-0.2117282,cover=1.98364961
booster[26]
0:[f142<17.9500008] yes=1,no=2,missing=2,gain=16.7333488,cover=222.739334
	1:[f157<329.5] yes=3,no=4,missing=3,gain=2.19959259,cover=43.5280457
		3:[f148<1.43499994] yes=7,no=8,missing=7,gain=1.84410667,cover=36.9439621
			7:[f1<76.5] yes=15,no=16,missing=15,gain=0.741764069,cover=35.0952072
				15:leaf=-0.291687816,cover=33.9079208
				16:leaf=-0.0262117945,cover=1.18728912
			8:leaf=0.0154842259,cover=1.84875453
		4:[f152<62.5] yes=9,no=10,missing=9,gain=2.76203465,cover=6.58408117
			9:[f151<65.0500031] yes=17,no=18,missing=18,gain=2.00809336,cover=5.29890251
				17:leaf=0.130759731,cover=1.00188851
				18:leaf=-0.24375765,cover=4.29701376
			10:leaf=0.224749744,cover=1.28517902
	2:[f35<-9.53674316e-07] yes=5,no=6,missing=5,gain=7.21369171,cover=179.211288
		5:[f39<-9.53674316e-07] yes=11,no=12,missing=11,gain=6.60802317,cover=175.184555
			11:[f1<49.5] yes=19,no=20,missing=19,gain=6.37476921,cover=115.334152
				19:[f142<48.9500008] yes=23,no=24,missing=23,gain=4.03258801,cover=58.2700233
					23:[f159<3.00500011] yes=31,no=32,missing=31,gain=1.09943008,cover=43.0418167
						31:leaf=-0.131434694,cover=17.811655
						32:leaf=-0.243920937,cover=25.2301617
					24:[f150<188.050003] yes=33,no=34,missing=34,gain=4.88469076,cover=15.2282047
						33:leaf=0.0916685164,cover=10.6015625
						34:leaf=-0.249115229,cover=4.62664223
				20:[f155<13.3500004] yes=25,no=26,missing=26,gain=7.97852421,cover=57.0641289
					25:[f150<152.050003] yes=35,no=36,missing=36,gain=2.3125968,cover=17.2439575
						35:leaf=-0.00440018065,cover=4.99207592
						36:leaf=-0.244875535,cover=12.2518826
					26:[f1<60.5] yes=37,no=38,missing=37,gain=9.29688072,cover=39.8201714
						37:leaf=0.200190708,cover=19.8349648
						38:leaf=-0.083288148,cover=19.9852066
			12:[f24<-9.53674316e-07] yes=21,no=22,missing=21,gain=3.44785476,cover=59.8504028
				21:[f156<5.50500011] yes=27,no=28,missing=27,gain=5.6507411,cover=42.1732025
					27:[f23<-9.53674316e-07] yes=39,no=40,missing=39,gain=2.15859079,cover=11.8188114
						39:leaf=-0.216736287,cover=5.1796813
						40:leaf=0.0261909477,cover=6.63913059
					28:[f145<92.5] yes=41,no=42,missing=41,gain=4.60938215,cover=30.3543892
						41:leaf=0.209423169,cover=23.6420746
						42:leaf=-0.0631394014,cover=6.71231365
				22:[f148<0.675000012] yes=29,no=30,missing=29,gain=5.53406715,cover=17.6772022
					29:[f156<8.20499992] yes=43,no=44,missing=43,gain=3.85239029,cover=6.31442642
						43:leaf=0.261336029,cover=4.76224852
						44:leaf=-0.192105815,cover=1.55217755
					30:[f143<85] yes=45,no=46,missing=46,gain=1.35437727,cover=11.3627758
						45:leaf=-0.223516032,cover=10.3225431
						46:leaf=0.0768892244,cover=1.04023242
		6:[f23<-9.53674316e-07] yes=13,no=14,missing=13,gain=3.06348848,cover=4.02673674
			13:leaf=-0.0739233941,cover=1.61562943
			14:leaf=0.300000012,cover=2.4111073
booster[27]
0:[f143<21.9500008] yes=1,no=2,missing=2,gain=12.5588665,cover=207.584
	1:[f140<4.18499994] yes=3,no=4,missing=3,gain=2.68068504,cover=41.1796646
		3:[f39<-9.53674316e-07] yes=7,no=8,missing=7,gain=3.66883111,cover=17.8335361
			7:[f2<-9.53674316e-07] yes=15,no=16,missing=15,gain=4.56128931,cover=14.9128361
				15:leaf=-0.273823649,cover=10.3748026
				16:[f149<292.5] yes=25,no=26,missing=25,gain=5.56223345,cover=4.53803396
					25:[f144<37.5] yes=35,no=36,missing=36,gain=1.21398258,cover=2.15539742
						35:leaf=0.300000012,cover=1.10766542
						36:leaf=-0.011940538,cover=1.047732
					26:leaf=-0.211678579,cover=2.38263631
			8:[f161<0.155000001] yes=17,no=18,missing=17,gain=3.54921818,cover=2.92070007
				17:leaf=-0.166730031,cover=1.24173594
				18:leaf=0.300000012,cover=1.67896414
		4:[f41<-9.53674316e-07] yes=9,no=10,missing=9,gain=0.631153107,cover=23.3461266
			9:leaf=-0.28727752,cover=22.0653133
			10:leaf=-0.0372138731,cover=1.28081405
	2:[f150<212.449997] yes=5,no=6,missing=5,gain=6.19471645,cover=166.404343
		5:[f35<-9.53674316e-07] yes=11,no=12,missing=11,gain=5.65582561,cover=149.666428
			11:[f1<25.5] yes=19,no=20,missing=19,gain=4.83983135,cover=146.254364
				19:[f151<62.6500015] yes=27,no=28,missing=28,gain=0.644262791,cover=7.72771883
					27:leaf=-0.00314897648,cover=1.0033139
					28:leaf=-0.261867315,cover=6.72440481
				20:[f153<125.5] yes=29,no=30,missing=29,gain=4.36146116,cover=138.526642
					29:[f5<-9.53674316e-07] yes=37,no=38,missing=37,gain=4.81182575,cover=122.938408
						37:leaf=0.17766054,cover=13.8124247
						38:leaf=-0.00452485075,cover=109.125984
					30:[f154<40.0499992] yes=39,no=40,missing=40,gain=2.87589097,cover=15.5882359
						39:leaf=0.0242044348,cover=5.60410357
						40:leaf=-0.235930473,cover=9.98413181
			12:[f146<0.504999995] yes=21,no=22,missing=21,gain=2.50058031,cover=3.41207409
				21:leaf=0.300000012,cover=2.06301689
				22:leaf=-0.0662220493,cover=1.34905708
		6:[f143<36.5] yes=13,no=14,missing=13,gain=1.60807133,cover=16.7379093
			13:leaf=-0.271794021,cover=9.29427242
			14:[f142<53.5] yes=23,no=24,missing=24,gain=1.84623218,cover=7.44363642
				23:[f158<2.03499985] yes=31,no=32,missing=32,gain=1.91190934,cover=3.36483312
					31:leaf=-0.161749691,cover=1.11134553
					32:[f158<2.44000006] yes=41,no=42,missing=41,gain=0.0712832212,cover=2.25348759
						41:leaf=0.263371646,cover=1.010939
						42:leaf=0.0686790273,cover=1.24254858
				24:[f158<2.99499989] yes=33,no=34,missing=34,gain=0.37119174,cover=4.07880306
					33:leaf=-0.23204565,cover=3.07771206
					34:leaf=-0.0135371918,cover=1.00109112
booster[28]
0:[f142<17.9500008] yes=1,no=2,missing=2,gain=10.1894341,cover=195.548523
	1:[f157<329.5] yes=3,no=4,missing=3,gain=2.51164532,cover=28.7124481
		3:[f73<-9.53674316e-07] yes=7,no=8,missing=7,gain=2.46401215,cover=23.5767975
			7:[f1<76.5] yes=15,no=16,missing=15,gain=0.606592178,cover=22.295723
				15:leaf=-0.286589205,cover=20.9939003
				16:leaf=-0.0398599915,cover=1.30182385
			8:leaf=0.0942436829,cover=1.28107429
		4:[f152<52.8499985] yes=9,no=10,missing=9,gain=2.12385821,cover=5.13565063
			9:[f149<259.5] yes=17,no=18,missing=17,gain=0.129971504,cover=2.92064142
				17:leaf=-0.031169774,cover=1.00010312
				18:leaf=-0.197649226,cover=1.92053831
			10:[f146<0.405000001] yes=19,no=20,missing=19,gain=3.17616415,cover=2.21500897
				19:leaf=-0.156375825,cover=1.08158743
				20:leaf=0.300000012,cover=1.13342166
	2:[f151<126.850006] yes=5,no=6,missing=5,gain=5.63643503,cover=166.836075
		5:[f161<0.344999999] yes=11,no=12,missing=11,gain=4.63146782,cover=147.698502
			11:[f55<-9.53674316e-07] yes=21,no=22,missing=21,gain=5.44068575,cover=130.158722
				21:[f35<-9.53674316e-07] yes=29,no=30,missing=29,gain=4.7915864,cover=117.793083
					29:[f155<16.3899994] yes=41,no=42,missing=41,gain=4.23059273,cover=114.286995
						41:leaf=-0.0284992848,cover=107.215073
						42:leaf=0.196691275,cover=7.07192802
					30:[f156<7.41499996] yes=43,no=44,missing=43,gain=2.16856194,cover=3.50608397
						43:leaf=0.300000012,cover=2.38841343
						44:leaf=-0.0669637397,cover=1.11767054
				22:[f145<119.5] yes=31,no=32,missing=32,gain=7.61762619,cover=12.3656464
					31:[f151<75.9499969] yes=45,no=46,missing=45,gain=5.47869778,cover=10.1147738
						45:leaf=-0.133855626,cover=2.09770298
						46:leaf=0.300000012,cover=8.01707077
					32:leaf=-0.228211224,cover=2.25087333
			12:[f146<0.305000007] yes=23,no=24,missing=23,gain=3.36980534,cover=17.5397663
				23:[f148<0.754999995] yes=33,no=34,missing=33,gain=3.31048536,cover=4.02033234
					33:leaf=-0.189305738,cover=1.57370853
					34:[f145<75.75] yes=47,no=48,missing=47,gain=1.31732631,cover=2.44662404
						47:leaf=-0.0184342917,cover=1.09872925
						48:leaf=0.300000012,cover=1.34789479
				24:[f143<75.5] yes=35,no=36,missing=35,gain=1.62288952,cover=13.519434
					35:[f151<120.449997] yes=49,no=50,missing=50,gain=0.681752205,cover=12.1774874
						49:leaf=-0.261416256,cover=11.1751175
						50:leaf=-0.00200452935,cover=1.00236928
					36:leaf=0.0647734478,cover=1.34194648
		6:[f142<43.6500015] yes=13,no=14,missing=13,gain=2.36823177,cover=19.1375828
			13:[f140<3.88500023] yes=25,no=26,missing=26,gain=0.750074387,cover=11.2549858
				25:leaf=-0.00177926756,cover=1.00130427
				26:leaf=-0.274525315,cover=10.2536812
			14:[f142<53.5] yes=27,no=28,missing=28,gain=3.9110198,cover=7.88259697
				27:[f158<2.28499985] yes=37,no=38,missing=37,gain=1.27532351,cover=3.33493352
					37:[f140<4.29500008] yes=51,no=52,missing=52,gain=0.209810972,cover=2.1387198
						51:leaf=0.300000012,cover=1.01378822
						52:leaf=0.0727498233,cover=1.12493169
					38:leaf=-0.047392901,cover=1.1962136
				28:[f143<69.5] yes=39,no=40,missing=39,gain=0.390839338,cover=4.54766369
					39:leaf=-0.237510979,cover=3.53755808
					40:leaf=-0.0150061026,cover=1.01010549
booster[29]
0:[f1<30.5] yes=1,no=2,missing=1,gain=7.94778252,cover=184.963623
	1:[f143<28.8500004] yes=3,no=4,missing=4,gain=3.69015312,cover=25.9110851
		3:leaf=-0.281392455,cover=14.83813
		4:[f161<0.105000004] yes=7,no=8,missing=8,gain=7.62835932,cover=11.0729551
			7:[f146<0.444999993] yes=13,no=14,missing=13,gain=2.50184584,cover=3.5557518
				13:leaf=0.300000012,cover=2.07591891
				14:leaf=-0.0592054687,cover=1.47983289
			8:[f155<10.8500004] yes=15,no=16,missing=15,gain=0.2372365,cover=7.51720285
				15:[f29<-9.53674316e-07] yes=25,no=26,missing=25,gain=0.0391434431,cover=2.43007445
					25:leaf=-0.0180634987,cover=1.12528038
					26:leaf=-0.108104035,cover=1.30479407
				16:leaf=-0.252513409,cover=5.08712864
	2:[f154<38.3499985] yes=5,no=6,missing=6,gain=7.18730831,cover=159.052536
		5:[f39<-9.53674316e-07] yes=9,no=10,missing=9,gain=3.03086376,cover=21.6127567
			9:[f77<-9.53674316e-07] yes=17,no=18,missing=17,gain=1.98404312,cover=14.1254396
				17:leaf=-0.279572964,cover=12.8444366
				18:leaf=0.0670058653,cover=1.28100324
			10:[f144<25.5] yes=19,no=20,missing=20,gain=3.71128368,cover=7.48731709
				19:[f141<2.95000005] yes=27,no=28,missing=27,gain=2.43693066,cover=2.83108497
					27:leaf=-0.0648774877,cover=1.51555824
					28:leaf=0.300000012,cover=1.3155266
				20:[f1<70.5] yes=29,no=30,missing=29,gain=1.10624373,cover=4.65623236
					29:leaf=-0.238826722,cover=3.33375597
					30:leaf=0.0457662269,cover=1.32247627
		6:[f144<14.8000002] yes=11,no=12,missing=12,gain=5.57661724,cover=137.439774
			11:[f146<0.36500001] yes=21,no=22,missing=22,gain=0.542224407,cover=7.78957224
				21:leaf=-0.00704256026,cover=1.03926039
				22:leaf=-0.244815722,cover=6.75031185
			12:[f159<3.90500021] yes=23,no=24,missing=23,gain=6.5858655,cover=129.650208
				23:[f148<0.845000029] yes=31,no=32,missing=32,gain=8.31285763,cover=70.1356659
					31:[f141<3.54999995] yes=35,no=36,missing=36,gain=11.7831097,cover=37.7737541
						35:leaf=-0.0354835466,cover=13.7909422
						36:leaf=0.300000012,cover=23.9828129
					32:[f158<1.93499994] yes=37,no=38,missing=38,gain=4.90727997,cover=32.3619118
						37:leaf=-0.216309294,cover=7.59589863
						38:leaf=0.045576714,cover=24.7660122
				24:[f140<4.19499969] yes=33,no=34,missing=34,gain=5.79012394,cover=59.5145378
					33:[f140<4.10500002] yes=39,no=40,missing=40,gain=4.21895218,cover=20.7306099
						39:leaf=0.0262676515,cover=19.0699158
						40:leaf=0.300000012,cover=1.66069388
					34:[f154<44.4500008] yes=41,no=42,missing=42,gain=3.97867966,cover=38.7839279
						41:leaf=-0.204623073,cover=19.1723156
						42:leaf=-0.014087162,cover=19.6116123
booster[30]
0:[f142<17.9500008] yes=1,no=2,missing=2,gain=5.50383139,cover=178.14711
	1:[f147<36.9700012] yes=3,no=4,missing=3,gain=2.8087039,cover=20.0272331
		3:[f156<9.61499977] yes=7,no=8,missing=7,gain=2.43654442,cover=15.5934811
			7:leaf=-0.279105097,cover=13.2091589
			8:[f151<78.4499969] yes=15,no=16,missing=15,gain=2.34738874,cover=2.38432264
				15:leaf=0.2673558,cover=1.00016427
				16:leaf=-0.174361289,cover=1.38415849
		4:[f154<39.8499985] yes=9,no=10,missing=9,gain=4.90876675,cover=4.43375158
			9:leaf=-0.214711532,cover=2.49520206
			10:leaf=0.300000012,cover=1.93854928
	2:[f150<218.050003] yes=5,no=6,missing=5,gain=4.17496443,cover=158.119873
		5:[f149<527.5] yes=11,no=12,missing=11,gain=4.06421995,cover=147.601883
			11:[f161<0.344999999] yes=17,no=18,missing=17,gain=3.76170659,cover=141.266464
				17:[f161<0.254999995] yes=25,no=26,missing=25,gain=3.47973633,cover=126.7957
					25:[f155<16.25] yes=29,no=30,missing=29,gain=3.93916059,cover=104.507553
						29:leaf=-0.0114586558,cover=96.0514679
						30:leaf=0.191395149,cover=8.45608425
					26:[f145<88.5] yes=31,no=32,missing=32,gain=5.8576622,cover=22.288147
						31:leaf=0.231010407,cover=15.6274939
						32:leaf=-0.0912503004,cover=6.66065311
				18:[f147<33.9500008] yes=27,no=28,missing=27,gain=2.47776604,cover=14.470767
					27:[f142<147.5] yes=33,no=34,missing=34,gain=2.43122005,cover=9.0488596
						33:leaf=-0.271491081,cover=7.88122511
						34:leaf=0.115445152,cover=1.16763413
					28:[f147<37.1500015] yes=35,no=36,missing=36,gain=3.04849648,cover=5.42190742
						35:leaf=0.228661507,cover=2.54378676
						36:leaf=-0.156864658,cover=2.8781209
			12:[f156<9.79500008] yes=19,no=20,missing=19,gain=0.533250093,cover=6.33542299
				19:leaf=-0.248065501,cover=5.32827044
				20:leaf=-0.0064432146,cover=1.0071528
		6:[f141<3.25] yes=13,no=14,missing=13,gain=1.81984234,cover=10.5179873
			13:[f149<469.5] yes=21,no=22,missing=21,gain=0.459647655,cover=8.38177299
				21:leaf=-0.266239434,cover=7.37856579
				22:leaf=-0.0242091864,cover=1.00320768
			14:[f158<2.99499989] yes=23,no=24,missing=24,gain=1.81906784,cover=2.13621378
				23:leaf=-0.160686836,cover=1.11803222
				24:leaf=0.239226714,cover=1.01818156
booster[31]
0:[f1<30.5] yes=1,no=2,missing=1,gain=4.77847576,cover=173.096359
	1:[f143<28.8500004] yes=3,no=4,missing=4,gain=3.25232458,cover=20.1031303
		3:leaf=-0.272972852,cover=9.98655128
		4:[f161<0.105000004] yes=7,no=8,missing=8,gain=5.58196592,cover=10.1165781
			7:[f153<89.5] yes=13,no=14,missing=13,gain=2.69165182,cover=3.92804956
				13:[f149<324.5] yes=25,no=26,missing=26,gain=2.16645455,cover=2.68544531
					25:leaf=0.223334149,cover=1.00755978
					26:leaf=-0.189103618,cover=1.67788553
				14:leaf=0.300000012,cover=1.24260426
			8:[f147<30.8999996] yes=15,no=16,missing=15,gain=0.367511749,cover=6.18852901
				15:leaf=-0.229377359,cover=5.04295588
				16:leaf=-0.0221536197,cover=1.14557314
	2:[f153<120.199997] yes=5,no=6,missing=5,gain=3.97718358,cover=152.993225
		5:[f151<130.550003] yes=9,no=10,missing=9,gain=4.27620363,cover=133.846024
			9:[f147<35.1900024] yes=17,no=18,missing=17,gain=4.29038048,cover=122.254662
				17:[f1<68.5] yes=27,no=28,missing=27,gain=5.22869539,cover=92.7686615
					27:[f29<-9.53674316e-07] yes=39,no=40,missing=39,gain=4.73603106,cover=84.3463745
						39:leaf=0.0852667838,cover=44.9487953
						40:leaf=-0.0556065999,cover=39.3975792
					28:[f144<50.5] yes=41,no=42,missing=41,gain=0.674937725,cover=8.42228794
						41:leaf=-0.268785596,cover=5.73029852
						42:leaf=-0.0610457286,cover=2.69198942
				18:[f147<37.0499992] yes=29,no=30,missing=30,gain=7.06495667,cover=29.4860001
					29:[f154<45.1500015] yes=43,no=44,missing=44,gain=4.88386154,cover=8.03528214
						43:leaf=0.300000012,cover=5.6973114
						44:leaf=-0.0983008668,cover=2.33797073
					30:[f149<325.5] yes=45,no=46,missing=46,gain=6.72932339,cover=21.4507179
						45:leaf=0.300000012,cover=4.01544714
						46:leaf=-0.05676331,cover=17.4352703
			10:[f143<36.5] yes=19,no=20,missing=19,gain=2.84612679,cover=11.5913668
				19:leaf=-0.263162434,cover=7.02634621
				20:[f1<50.5] yes=31,no=32,missing=31,gain=1.61168778,cover=4.56502104
					31:leaf=-0.174734786,cover=1.36660719
					32:[f156<7.61999989] yes=47,no=48,missing=48,gain=1.50290155,cover=3.19841409
						47:leaf=-0.0745895505,cover=1.39186776
						48:leaf=0.266346097,cover=1.80654621
		6:[f157<203.5] yes=11,no=12,missing=12,gain=2.4317987,cover=19.1472054
			11:[f145<93.5] yes=21,no=22,missing=21,gain=3.40237975,cover=7.88914585
				21:[f144<55.5] yes=33,no=34,missing=33,gain=1.49174857,cover=5.02966976
					33:leaf=-0.237355456,cover=3.34589171
					34:leaf=0.0649177879,cover=1.68377793
				22:[f144<89.5] yes=35,no=36,missing=35,gain=2.04443741,cover=2.85947633
					35:leaf=0.300000012,cover=1.60975897
					36:leaf=-0.0649296343,cover=1.24971724
			12:[f140<3.90500021] yes=23,no=24,missing=24,gain=1.43576145,cover=11.2580585
				23:[f148<0.694999993] yes=37,no=38,missing=38,gain=1.69003284,cover=2.80796337
					37:leaf=0.17308405,cover=1.26574516
					38:leaf=-0.18358919,cover=1.54221821
				24:leaf=-0.271364093,cover=8.45009518
booster[32]
0:[f19<-9.53674316e-07] yes=1,no=2,missing=1,gain=3.72526526,cover=167.471146
	1:[f158<2.09499979] yes=3,no=4,missing=4,gain=3.8475554,cover=97.6596985
		3:[f151<104.550003] yes=7,no=8,missing=8,gain=4.05584717,cover=39.9225311
			7:[f157<290.5] yes=15,no=16,missing=16,gain=4.83787346,cover=26.6053314
				15:[f147<23.0499992] yes=29,no=30,missing=30,gain=5.74236631,cover=23.3450222
					29:[f29<-9.53674316e-07] yes=49,no=50,missing=49,gain=3.73257017,cover=6.78447151
						49:leaf=0.300000012,cover=2.69564819
						50:leaf=-0.0249104556,cover=4.0888238
					30:[f140<4.60500002] yes=51,no=52,missing=51,gain=2.39881325,cover=16.5605507
						51:leaf=-0.170935422,cover=14.6250296
						52:leaf=0.135300666,cover=1.9355216
				16:[f141<2.8499999] yes=31,no=32,missing=31,gain=3.89545345,cover=3.26030922
					31:leaf=0.300000012,cover=2.21663308
					32:leaf=-0.164313897,cover=1.04367626
			8:[f142<72.5] yes=17,no=18,missing=17,gain=1.56058025,cover=13.3172007
				17:[f154<39.6500015] yes=33,no=34,missing=34,gain=1.29501438,cover=11.6561804
					33:[f63<-9.53674316e-07] yes=53,no=54,missing=53,gain=2.16986084,cover=3.5037837
						53:leaf=-0.205098137,cover=2.10203886
						54:leaf=0.176489308,cover=1.40174472
					34:leaf=-0.277689636,cover=8.1523962
				18:leaf=0.061332278,cover=1.66102052
		4:[f150<158.949997] yes=9,no=10,missing=10,gain=4.50378752,cover=57.7371674
			9:[f157<157.5] yes=19,no=20,missing=20,gain=3.19514704,cover=16.0004902
				19:[f156<6.93999958] yes=35,no=36,missing=36,gain=1.53533995,cover=2.14256644
					35:leaf=0.300000012,cover=1.03027511
					36:leaf=-0.0444251224,cover=1.11229146
				20:[f1<44.5] yes=37,no=38,missing=37,gain=3.27160883,cover=13.8579235
					37:[f151<84.25] yes=55,no=56,missing=56,gain=1.66465569,cover=4.90539646
						55:leaf=0.155940145,cover=3.85122514
						56:leaf=-0.170585498,cover=1.05417156
					38:[f144<50.5] yes=57,no=58,missing=57,gain=0.849383831,cover=8.95252705
						57:leaf=-0.270321608,cover=6.51101875
						58:leaf=-0.0446421169,cover=2.44150853
			10:[f142<42.5] yes=21,no=22,missing=22,gain=7.58980608,cover=41.7366753
				21:[f155<14.75] yes=39,no=40,missing=40,gain=8.62488174,cover=18.2146893
					39:[f151<132.949997] yes=59,no=60,missing=60,gain=3.84142113,cover=13.6277781
						59:leaf=0.300000012,cover=12.5394659
						60:leaf=-0.156783238,cover=1.08831167
					40:[f154<50.4500008] yes=61,no=62,missing=61,gain=3.79592943,cover=4.58691072
						61:leaf=-0.23826991,cover=3.58304667
						62:leaf=0.262981027,cover=1.00386405
				22:[f5<-9.53674316e-07] yes=41,no=42,missing=41,gain=2.79953289,cover=23.5219879
					41:[f151<113.5] yes=63,no=64,missing=64,gain=1.83799219,cover=4.06864119
						63:leaf=-0.0843317956,cover=1.04665828
						64:leaf=0.299766004,cover=3.02198315
					42:[f157<311.5] yes=65,no=66,missing=65,gain=1.88526952,cover=19.4533463
						65:leaf=-0.081093654,cover=17.1799793
						66:leaf=0.167646289,cover=2.27336669
	2:[f147<24.9949989] yes=5,no=6,missing=5,gain=3.78836679,cover=69.8114395
		5:[f151<63.5499992] yes=11,no=12,missing=12,gain=3.23455572,cover=28.6104507
			11:[f154<41.0499992] yes=23,no=24,missing=24,gain=2.63260484,cover=3.04384542
				23:leaf=0.281142175,cover=1.87642694
				24:leaf=-0.165736586,cover=1.1674186
			12:[f28<-9.53674316e-07] yes=25,no=26,missing=25,gain=3.12452221,cover=25.5666046
				25:leaf=-0.280647606,cover=13.7669611
				26:[f158<3.49499989] yes=43,no=44,missing=44,gain=2.17451954,cover=11.7996435
					43:[f157<146.5] yes=67,no=68,missing=68,gain=1.35995317,cover=5.42364407
						67:leaf=0.0710520223,cover=1.01513708
						68:leaf=-0.252561718,cover=4.40850687
					44:[f1<35.5] yes=69,no=70,missing=69,gain=1.51131463,cover=6.37599993
						69:leaf=-0.167176366,cover=1.25098455
						70:leaf=0.122680068,cover=5.12501526
		6:[f72<-9.53674316e-07] yes=13,no=14,missing=13,gain=5.87566805,cover=41.2009926
			13:[f150<196.75] yes=27,no=28,missing=28,gain=3.92750502,cover=39.2671776
				27:[f141<3.2750001] yes=45,no=46,missing=45,gain=4.04810715,cover=32.0511894
					45:[f158<1.89499998] yes=71,no=72,missing=71,gain=6.10337353,cover=26.6876831
						71:leaf=-0.237273619,cover=8.73366642
						72:leaf=0.0555125251,cover=17.9540176
					46:[f151<80.8500061] yes=73,no=74,missing=73,gain=4.26755238,cover=5.36350727
						73:leaf=-0.13150765,cover=1.76511467
						74:leaf=0.300000012,cover=3.59839296
				28:[f140<4.64499998] yes=47,no=48,missing=47,gain=0.643820286,cover=7.21598673
					47:leaf=-0.259453595,cover=6.20853281
					48:leaf=-0.0017097292,cover=1.00745356
			14:leaf=0.300000012,cover=1.93381464
booster[33]
0:[f154<38.3499985] yes=1,no=2,missing=2,gain=3.55809283,cover=161.599686
	1:[f39<-9.53674316e-07] yes=3,no=4,missing=3,gain=2.82440186,cover=20.485918
		3:[f147<19.0499992] yes=7,no=8,missing=8,gain=2.1165452,cover=12.8894882
			7:[f144<16.6000004] yes=15,no=16,missing=15,gain=2.04423094,cover=3.34242344
				15:leaf=-0.187065721,cover=1.63681996
				16:leaf=0.184114054,cover=1.70560348
			8:leaf=-0.272497445,cover=9.54706478
		4:[f140<4.26500034] yes=9,no=10,missing=10,gain=3.11087227,cover=7.5964303
			9:[f158<2.19500017] yes=17,no=18,missing=18,gain=2.97134876,cover=4.62625217
				17:[f151<83.9499969] yes=23,no=24,missing=24,gain=0.826720595,cover=2.36456275
					23:leaf=0.0896687508,cover=1.0017792
					24:leaf=-0.179431707,cover=1.36278355
				18:[f142<25.5] yes=25,no=26,missing=26,gain=1.13914204,cover=2.26168942
					25:leaf=0.300000012,cover=1.09375453
					26:leaf=0.0019988725,cover=1.16793489
			10:leaf=-0.186728269,cover=2.97017789
	2:[f38<-9.53674316e-07] yes=5,no=6,missing=5,gain=4.32738256,cover=141.11377
		5:[f140<4.19499969] yes=11,no=12,missing=11,gain=4.0439539,cover=135.069107
			11:[f160<0.574999988] yes=19,no=20,missing=20,gain=6.34452677,cover=71.3529282
				19:[f159<2.61499977] yes=27,no=28,missing=28,gain=7.13892746,cover=38.3656769
					27:[f146<0.245000005] yes=35,no=36,missing=35,gain=3.04068851,cover=6.97072554
						35:leaf=0.162406221,cover=1.79956079
						36:leaf=-0.222601071,cover=5.17116499
					28:[f143<35.5] yes=37,no=38,missing=38,gain=6.51726151,cover=31.3949509
						37:leaf=0.300000012,cover=15.779295
						38:leaf=0.0598626733,cover=15.6156559
				20:[f62<-9.53674316e-07] yes=29,no=30,missing=29,gain=5.07477188,cover=32.9872513
					29:[f143<41.5] yes=39,no=40,missing=40,gain=2.7298367,cover=25.8349915
						39:leaf=0.250910163,cover=3.34329724
						40:leaf=-0.00853869226,cover=22.4916935
					30:[f160<0.944999993] yes=41,no=42,missing=42,gain=0.342983246,cover=7.1522603
